{"learner":{"attributes":{"best_iteration":"299","best_ntree_limit":"300","best_score":"69.25029852056215","scikit_learn":"{\"n_estimators\": 300, \"objective\": \"reg:squarederror\", \"max_depth\": 6, \"max_leaves\": null, \"max_bin\": null, \"grow_policy\": null, \"learning_rate\": 0.005, \"verbosity\": null, \"booster\": null, \"tree_method\": \"hist\", \"gamma\": 0.1, \"min_child_weight\": 5, \"max_delta_step\": null, \"subsample\": 0.7, \"sampling_method\": null, \"colsample_bytree\": 0.7, \"colsample_bylevel\": null, \"colsample_bynode\": null, \"reg_alpha\": 0.2, \"reg_lambda\": 1.5, \"scale_pos_weight\": null, \"base_score\": null, \"missing\": NaN, \"num_parallel_tree\": null, \"random_state\": 42, \"n_jobs\": -1, \"monotone_constraints\": null, \"interaction_constraints\": null, \"importance_type\": null, \"gpu_id\": null, \"validate_parameters\": null, \"predictor\": null, \"enable_categorical\": false, \"feature_types\": null, \"max_cat_to_onehot\": null, \"max_cat_threshold\": null, \"eval_metric\": null, \"early_stopping_rounds\": null, \"callbacks\": null, \"evals_result_\": {\"validation_0\": {\"rmse\": [105.0017721356508, 104.8117212398359, 104.5779647485654, 104.33749070430576, 104.10547285911115, 103.86508102132663, 103.61574957326387, 103.41671661498795, 103.19805850024433, 102.96549928161853, 102.74685860327658, 102.53595636443424, 102.29766700770803, 102.07928377962702, 101.85819085790699, 101.65645433245099, 101.42328002674051, 101.20257681461165, 100.96990330005823, 100.74949586624489, 100.54097568939389, 100.32739654773441, 100.11387684775897, 99.86147987549076, 99.63886226835012, 99.44262769005908, 99.23678032838014, 99.07060726614196, 98.87281943726502, 98.6713808899123, 98.47595430625202, 98.2689115154742, 98.06437062494169, 97.83451134834485, 97.62484397022517, 97.43633271136186, 97.23520637034744, 97.04685522207123, 96.83498602433983, 96.63455605885588, 96.42501140653111, 96.27559201153069, 96.09521017432786, 95.89835511358855, 95.70695072337402, 95.52594759140426, 95.34119307073762, 95.14387620049813, 94.95118933023078, 94.77662174558209, 94.58920170003475, 94.39279956505469, 94.23349744175594, 94.04452427233412, 93.89857852038978, 93.70986895747285, 93.51062604733632, 93.31459152038211, 93.14281235397819, 92.95639565039276, 92.78666261276754, 92.62435268002739, 92.43062586025044, 92.25340482086445, 92.08259996453576, 91.93309847435309, 91.79212594762878, 91.6274770020895, 91.43965998214225, 91.26421326205757, 91.09444681977372, 90.91155022028626, 90.73398819598175, 90.5416730848767, 90.34893425320179, 90.1858024723236, 90.02522369094198, 89.85994407957219, 89.70694714663468, 89.54445501389976, 89.37128416580916, 89.20747550841845, 89.04280467931548, 88.9168666010704, 88.759749691782, 88.59257335016969, 88.44211127677379, 88.28233754194055, 88.12056360533849, 87.96742970100286, 87.81414823762978, 87.64942040606675, 87.53076926364609, 87.38653136806846, 87.24502402193838, 87.11882319054111, 87.00843567205021, 86.8563634451616, 86.72067474120976, 86.55894127431459, 86.42195121427623, 86.28431273211443, 86.15951955814715, 86.04048689015872, 85.90511362501005, 85.781169848265, 85.64748443494523, 85.50788752286762, 85.37268435154614, 85.23440120340233, 85.12519627267307, 84.9699385866552, 84.82392273755153, 84.70453528071617, 84.550117284529, 84.42273502559507, 84.30175271266715, 84.15514351450959, 84.02409330177105, 83.90089758189801, 83.80062736129129, 83.68592548441886, 83.55213382556084, 83.42525542349892, 83.29821822042989, 83.16877899478169, 83.04619755181865, 82.90099377373583, 82.79893922987569, 82.68479592952428, 82.56705157022738, 82.46256655899764, 82.34182052556889, 82.22591348817053, 82.11278855887511, 81.99871778866118, 81.89373017581329, 81.78100708311382, 81.67439452048058, 81.55057942210111, 81.44052604829281, 81.30894366688953, 81.17980434634687, 81.06082205731555, 80.95207900470028, 80.84511290841553, 80.73463211621639, 80.63147912582188, 80.50406815777129, 80.39101676330168, 80.26880472143043, 80.16889825367782, 80.05766803272718, 79.94800233692142, 79.8375992473139, 79.73523628062145, 79.62932750089807, 79.5244015036017, 79.42143933035078, 79.30870185574082, 79.21968443862733, 79.10667785616967, 78.99707547334529, 78.88578728695944, 78.77400887428843, 78.66840894639218, 78.5588673088332, 78.45311336202495, 78.34297959340839, 78.26191107674929, 78.16724080471107, 78.08247935888198, 77.98897272310558, 77.90097714126351, 77.8198291985871, 77.71582622217993, 77.62425746811228, 77.51772719512148, 77.42459355814538, 77.32832229083246, 77.2441502157657, 77.15648771577182, 77.05826298656658, 76.95531639448238, 76.85043874211243, 76.76501103216397, 76.66526628433343, 76.58364461883528, 76.49683508971906, 76.39542494540567, 76.3125715010303, 76.21272154932983, 76.12517772453073, 76.03626989669186, 75.94981417543603, 75.86097886211932, 75.7800583887611, 75.70330356292074, 75.60875667799382, 75.53281214594189, 75.45735347595132, 75.37241354632734, 75.28328628666564, 75.19091849512395, 75.10004961004724, 75.00203676157544, 74.9063896502297, 74.81264954957042, 74.74226118397186, 74.6656351281333, 74.58361123381336, 74.50286684543815, 74.41453566932387, 74.35830575260577, 74.29473037146433, 74.21796043099936, 74.13413706589724, 74.06312806172653, 73.98549275245416, 73.90732917032604, 73.83622777085922, 73.76346305555093, 73.68953140079414, 73.62268043118401, 73.54412368807837, 73.46062404479115, 73.3955624272247, 73.31832979330628, 73.25560614656212, 73.19234207856066, 73.12133477205799, 73.04330265619346, 72.96043035866015, 72.91049397475746, 72.8316023271965, 72.76465691004826, 72.70787371120113, 72.64872144603642, 72.5856011682542, 72.52415819339994, 72.44597979857795, 72.37918426753653, 72.30308777004295, 72.24184226573378, 72.17740086415485, 72.11765465680348, 72.05814551345811, 71.99896556124696, 71.92979500376798, 71.86798674434478, 71.82347766631283, 71.78066274304442, 71.72396848904731, 71.67103319049929, 71.6067954664616, 71.55416153279509, 71.4904421518055, 71.42315042997078, 71.36322741174158, 71.3040428810507, 71.24983947578498, 71.193982870171, 71.14062032897277, 71.0785346552341, 71.02828895873364, 70.96474842857535, 70.9110611078592, 70.85241932999142, 70.79888402123918, 70.7310265544682, 70.68350372639898, 70.6399966244921, 70.57826080216297, 70.52097721479204, 70.4627680194196, 70.41110823762912, 70.36269674841031, 70.3106783700385, 70.25848164538952, 70.20539101498983, 70.14789833589816, 70.10311730465322, 70.0523730834178, 69.99351502954998, 69.94666655846815, 69.88930786061164, 69.8393078966538, 69.79215695286896, 69.74672552638769, 69.70382560819588, 69.66276118645695, 69.63141582031939, 69.58294950341563, 69.53994620362086, 69.49236819126052, 69.44742851274877, 69.39213517426225, 69.35803888317686, 69.29926007517535, 69.25029852056215]}}, \"_estimator_type\": \"regressor\"}"},"feature_names":[],"feature_types":[],"gradient_booster":{"model":{"gbtree_model_param":{"num_parallel_tree":"1","num_trees":"300","size_leaf_vector":"0"},"tree_info":[0,0,0,0,0,0,0,0,0,0,0,0,0,0,0,0,0,0,0,0,0,0,0,0,0,0,0,0,0,0,0,0,0,0,0,0,0,0,0,0,0,0,0,0,0,0,0,0,0,0,0,0,0,0,0,0,0,0,0,0,0,0,0,0,0,0,0,0,0,0,0,0,0,0,0,0,0,0,0,0,0,0,0,0,0,0,0,0,0,0,0,0,0,0,0,0,0,0,0,0,0,0,0,0,0,0,0,0,0,0,0,0,0,0,0,0,0,0,0,0,0,0,0,0,0,0,0,0,0,0,0,0,0,0,0,0,0,0,0,0,0,0,0,0,0,0,0,0,0,0,0,0,0,0,0,0,0,0,0,0,0,0,0,0,0,0,0,0,0,0,0,0,0,0,0,0,0,0,0,0,0,0,0,0,0,0,0,0,0,0,0,0,0,0,0,0,0,0,0,0,0,0,0,0,0,0,0,0,0,0,0,0,0,0,0,0,0,0,0,0,0,0,0,0,0,0,0,0,0,0,0,0,0,0,0,0,0,0,0,0,0,0,0,0,0,0,0,0,0,0,0,0,0,0,0,0,0,0,0,0,0,0,0,0,0,0,0,0,0,0,0,0,0,0,0,0,0,0,0,0,0,0,0,0,0,0,0,0,0,0,0,0,0,0,0,0,0,0,0,0],"trees":[{"base_weights":[1.887401E1,5.7719355E0,4.011291E1,4.2651796E0,9.9538025E1,1.2397473E0,6.4247314E1,9.172267E1,3.5948386E0,1.5911873E-1,5.125945E-1,8.250373E-1,4.2713866E-1,6.360768E0,8.275836E1,2.1551538E-3,5.109825E-1,9.1656845E1,3.027703E0,1.4448832E-1,6.857128E-1,8.9670986E-1,5.1658848E1,3.7977851E-3,9.403332E1,8.3351694E-2,5.0754154E-1,4.8521826E-1,2.7650654E0,6.413911E-1,4.000649E-3,8.437386E-2,3.4919926E-3,3.66121E-3,8.180552E1,3.7779452E-3,9.880524E1,1.2671127E-2,4.509287E-1,2.9697453E-3,3.4068194E-3,3.152635E-3,4.9366626E-1,3.3633225E-3,5.1667565E-1],"categories":[],"categories_nodes":[],"categories_segments":[],"categories_sizes":[],"default_left":[0,0,0,0,0,0,0,0,0,0,0,0,0,0,0,0,0,0,0,0,0,0,0,0,0,0,0,0,0,0,0,0,0,0,0,0,0,0,0,0,0,0,0,0,0],"id":0,"left_children":[1,3,5,7,9,11,13,15,17,-1,-1,19,-1,21,23,-1,-1,25,27,-1,29,31,33,-1,35,-1,-1,-1,37,39,-1,-1,-1,-1,41,-1,43,-1,-1,-1,-1,-1,-1,-1,-1],"loss_changes":[2.916926E6,9.156306E5,3.75212E6,3.7378625E5,1.576875E4,5.3417035E4,2.643219E6,4.6287844E4,3.160792E5,0E0,0E0,5.938726E3,0E0,1.4830305E5,1.728288E6,0E0,0E0,2.7356531E4,1.551009E5,0E0,6.657654E0,1.6787781E3,9.891842E4,0E0,7.31412E5,0E0,0E0,0E0,1.2642057E5,1.234375E0,0E0,0E0,0E0,0E0,5.5538125E4,0E0,6.949E5,0E0,0E0,0E0,0E0,0E0,0E0,0E0,0E0],"parents":[2147483647,0,0,1,1,2,2,3,3,4,4,5,5,6,6,7,7,8,8,11,11,13,13,14,14,17,17,18,18,20,20,21,21,22,22,24,24,28,28,29,29,34,34,36,36],"right_children":[2,4,6,8,10,12,14,16,18,-1,-1,20,-1,22,24,-1,-1,26,28,-1,30,32,34,-1,36,-1,-1,-1,38,40,-1,-1,-1,-1,42,-1,44,-1,-1,-1,-1,-1,-1,-1,-1],"split_conditions":[1.7805573E-1,2.2360094E0,1.5500154E-1,-1.1314386E0,2.8339285E-1,1.559311E0,1.6865455E-1,-6.8866783E-1,-1.1314386E0,1.5911873E-1,5.125945E-1,-1.0309917E0,4.2713866E-1,5.7352984E-1,1.00342505E-1,2.1551538E-3,5.109825E-1,-2.1234666E-1,-1.2070379E0,1.4448832E-1,3.6929466E-2,-8.306231E-1,5.073482E-2,3.7977851E-3,7.414084E-2,8.3351694E-2,5.0754154E-1,4.8521826E-1,2.2360094E0,-5.5711293E-1,4.000649E-3,8.437386E-2,3.4919926E-3,3.66121E-3,5.567136E-1,3.7779452E-3,6.498157E-2,1.2671127E-2,4.509287E-1,2.9697453E-3,3.4068194E-3,3.152635E-3,4.9366626E-1,3.3633225E-3,5.1667565E-1],"split_indices":[648,721,533,464,144,430,338,2,216,0,0,22,0,340,409,0,0,28,526,0,244,568,688,0,471,0,0,0,380,599,0,0,0,0,371,0,245,0,0,0,0,0,0,0,0],"split_type":[0,0,0,0,0,0,0,0,0,0,0,0,0,0,0,0,0,0,0,0,0,0,0,0,0,0,0,0,0,0,0,0,0,0,0,0,0,0,0,0,0,0,0,0,0],"sum_hessian":[1.0482E4,6.484E3,3.998E3,6.383E3,1.01E2,1.532E3,2.466E3,4.7E1,6.336E3,5E0,9.6E1,1.526E3,6E0,5.98E2,1.868E3,5E0,4.2E1,3.9E1,6.297E3,6E0,1.52E3,5.35E2,6.3E1,2.26E2,1.642E3,5E0,3.4E1,1.6E1,6.281E3,1.104E3,4.16E2,5E0,5.3E2,2.4E1,3.9E1,8E1,1.562E3,6.266E3,1.5E1,5.18E2,5.86E2,7E0,3.2E1,6.9E1,1.493E3],"tree_param":{"num_deleted":"0","num_feature":"744","num_nodes":"45","size_leaf_vector":"0"}},{"base_weights":[1.834342E1,5.625192E0,3.88678E1,4.0609975E0,9.941721E1,1.2770764E0,6.2983192E1,8.915336E1,3.4987113E0,1.5790519E-1,5.11594E-1,8.750004E-1,4.213916E-1,6.138621E0,8.1383995E1,2.2681034E-3,5.0639945E-1,3.1547935E0,4.9551323E-1,7.386157E-1,1.6566668E-1,4.9138576E-1,2.5136862E0,2.082948E0,9.2806015E1,7.517646E1,2.8947055E0,8.446095E-2,6.697423E-1,4.4490615E-1,1.0566478E0,2.4546705E-1,7.251789E-1,3.9621973E0,9.8459656E1,2.201665E-3,4.8240232E-1,4.5879138E-1,1.3650967E-2,3.1461264E-3,3.8813853E-3,1.6376236E-1,3.4327684E-3,3.6794208E-3,1.4798425E-3,2.4568912E-1,3.6063988E-3,3.1835558E-3,5.1468873E-1],"categories":[],"categories_nodes":[],"categories_segments":[],"categories_sizes":[],"default_left":[0,0,0,0,0,0,0,0,0,0,0,0,0,0,0,0,0,0,0,0,0,0,0,0,0,0,0,0,0,0,0,0,0,0,0,0,0,0,0,0,0,0,0,0,0,0,0,0,0],"id":1,"left_children":[1,3,5,7,9,11,13,15,17,-1,-1,19,-1,21,23,-1,-1,25,-1,27,-1,-1,29,31,33,35,37,-1,39,-1,41,-1,43,45,47,-1,-1,-1,-1,-1,-1,-1,-1,-1,-1,-1,-1,-1,-1],"loss_changes":[2.719765E6,9.4351925E5,3.613688E6,3.0245228E5,1.5892E4,5.1917234E4,2.539409E6,4.454897E4,2.063744E5,0E0,0E0,6.791207E3,0E0,1.9850402E5,1.661343E6,0E0,0E0,1.1711678E5,0E0,1.7023047E3,0E0,0E0,7.222022E4,1.4776958E4,8.04818E5,3.574092E4,9.096758E4,0E0,5.6486816E0,0E0,6.6048755E3,0E0,5.1226044E-1,1.4211888E4,6.60255E5,0E0,0E0,0E0,0E0,0E0,0E0,0E0,0E0,0E0,0E0,0E0,0E0,0E0,0E0],"parents":[2147483647,0,0,1,1,2,2,3,3,4,4,5,5,6,6,7,7,8,8,11,11,13,13,14,14,17,17,19,19,22,22,23,23,24,24,25,25,26,26,28,28,30,30,32,32,33,33,34,34],"right_children":[2,4,6,8,10,12,14,16,18,-1,-1,20,-1,22,24,-1,-1,26,-1,28,-1,-1,30,32,34,36,38,-1,40,-1,42,-1,44,46,48,-1,-1,-1,-1,-1,-1,-1,-1,-1,-1,-1,-1,-1,-1],"split_conditions":[1.674268E-1,2.2360094E0,1.4406973E-1,-1.128449E0,6.711197E-1,1.5028812E0,1.03512704E-1,-9.1468966E-1,2.030163E0,1.5790519E-1,5.11594E-1,1.652253E0,4.213916E-1,-4.226388E-2,1.1127431E-1,2.2681034E-3,5.0639945E-1,-1.1296748E0,4.9551323E-1,-1.0838991E0,1.6566668E-1,4.9138576E-1,-1.0162797E0,-9.1473067E-1,9.48766E-2,-2.3262893E-1,-1.2070379E0,8.446095E-2,3.3824675E-2,4.4490615E-1,-9.8965865E-1,2.4546705E-1,1.5824195E0,-8.284677E-1,1.2013382E-1,2.201665E-3,4.8240232E-1,4.5879138E-1,1.3650967E-2,3.1461264E-3,3.8813853E-3,1.6376236E-1,3.4327684E-3,3.6794208E-3,1.4798425E-3,2.4568912E-1,3.6063988E-3,3.1835558E-3,5.1468873E-1],"split_indices":[90,690,6,61,644,740,524,28,89,0,0,38,0,5,378,0,0,185,0,22,0,0,289,196,130,28,433,0,89,0,351,0,545,92,214,0,0,0,0,0,0,0,0,0,0,0,0,0,0],"split_type":[0,0,0,0,0,0,0,0,0,0,0,0,0,0,0,0,0,0,0,0,0,0,0,0,0,0,0,0,0,0,0,0,0,0,0,0,0,0,0,0,0,0,0,0,0,0,0,0,0],"sum_hessian":[1.0419E4,6.434E3,3.985E3,6.33E3,1.04E2,1.558E3,2.427E3,4E1,6.29E3,5E0,9.9E1,1.552E3,6E0,5.94E2,1.833E3,5E0,3.5E1,6.269E3,2.1E1,1.547E3,5E0,2.1E1,5.73E2,2.31E2,1.602E3,2.1E1,6.248E3,5E0,1.542E3,8E0,5.65E2,5E0,2.26E2,9.6E1,1.506E3,5E0,1.6E1,1E1,6.238E3,1.126E3,4.16E2,5E0,5.6E2,2.19E2,7E0,5E0,9.1E1,6.6E1,1.44E3],"tree_param":{"num_deleted":"0","num_feature":"744","num_nodes":"49","size_leaf_vector":"0"}},{"base_weights":[1.8561865E1,5.3927264E0,4.00303E1,4.0193167E0,1.0011292E2,1.4101385E0,6.400049E1,9.187884E1,3.2901585E0,2.3543487E-1,5.1166743E-1,9.9696535E-1,4.2322528E-1,6.239691E0,8.25997E1,2.2034612E-3,5.074289E-1,8.618802E1,2.7427924E0,2.4387704E-1,7.903789E-1,4.9242783E-1,2.4628692E0,4.006213E0,9.3235504E1,1.5853279E-3,5.0341195E-1,8.485451E1,2.4344718E0,6.5268886E-1,1.6244772E-1,4.343386E-1,1.1962571E0,4.350981E-1,7.030889E-1,3.5865381E-3,9.78145E1,1.6085672E-1,4.8236948E-1,4.673443E-1,1.118776E-2,3.0716977E-3,3.7534274E-3,2.4198267E-1,3.2461553E-3,1.0816633E-3,3.584576E-3,2.9285937E-3,5.0992924E-1],"categories":[],"categories_nodes":[],"categories_segments":[],"categories_sizes":[],"default_left":[0,0,0,0,0,0,0,0,0,0,0,0,0,0,0,0,0,0,0,0,0,0,0,0,0,0,0,0,0,0,0,0,0,0,0,0,0,0,0,0,0,0,0,0,0,0,0,0,0],"id":2,"left_children":[1,3,5,7,9,11,13,15,17,-1,-1,19,-1,21,23,-1,-1,25,27,-1,29,-1,31,33,35,-1,-1,37,39,41,-1,-1,43,-1,45,-1,47,-1,-1,-1,-1,-1,-1,-1,-1,-1,-1,-1,-1],"loss_changes":[2.9531102E6,8.419011E5,3.6763975E6,4.0860503E5,3.6339375E3,5.2215727E4,2.631794E6,4.6030688E4,2.8705862E5,0E0,0E0,1.4900687E4,0E0,2.081311E5,1.548771E6,0E0,0E0,5.158472E4,1.5902873E5,0E0,6.558748E3,0E0,6.145909E4,6.0900992E4,6.91467E5,0E0,0E0,9.704172E3,1.1211092E5,4.6968384E0,0E0,0E0,1.4647424E4,0E0,1.0310364E0,0E0,6.30761E5,0E0,0E0,0E0,0E0,0E0,0E0,0E0,0E0,0E0,0E0,0E0,0E0],"parents":[2147483647,0,0,1,1,2,2,3,3,4,4,5,5,6,6,7,7,8,8,11,11,13,13,14,14,17,17,18,18,20,20,22,22,23,23,24,24,27,27,28,28,29,29,32,32,34,34,36,36],"right_children":[2,4,6,8,10,12,14,16,18,-1,-1,20,-1,22,24,-1,-1,26,28,-1,30,-1,32,34,36,-1,-1,38,40,42,-1,-1,44,-1,46,-1,48,-1,-1,-1,-1,-1,-1,-1,-1,-1,-1,-1,-1],"split_conditions":[1.7805573E-1,2.2485163E0,1.5500154E-1,-1.1314386E0,8.027927E-1,1.4743745E0,1.6752371E-1,-7.967851E-1,-1.128449E0,2.3543487E-1,5.1166743E-1,-9.081065E-1,4.2322528E-1,-9.945373E-2,1.4953563E-1,2.2034612E-3,5.074289E-1,-7.0990425E-1,-1.1314386E0,2.4387704E-1,1.5005676E0,4.9242783E-1,-1.017847E0,-9.4438016E-1,1.00342505E-1,1.5853279E-3,5.0341195E-1,-1.3214093E0,-1.2039068E0,1.18607335E-1,1.6244772E-1,4.343386E-1,-1.7167976E0,4.350981E-1,-3.0698712E0,3.5865381E-3,1.4492549E-1,1.6085672E-1,4.8236948E-1,4.673443E-1,1.118776E-2,3.0716977E-3,3.7534274E-3,2.4198267E-1,3.2461553E-3,1.0816633E-3,3.584576E-3,2.9285937E-3,5.0992924E-1],"split_indices":[338,101,254,247,58,255,741,207,61,0,0,371,0,253,626,0,0,28,340,0,469,0,537,604,378,0,0,324,154,151,0,0,410,0,415,0,462,0,0,0,0,0,0,0,0,0,0,0,0],"split_type":[0,0,0,0,0,0,0,0,0,0,0,0,0,0,0,0,0,0,0,0,0,0,0,0,0,0,0,0,0,0,0,0,0,0,0,0,0,0,0,0,0,0,0,0,0,0,0,0,0],"sum_hessian":[1.0445E4,6.475E3,3.97E3,6.384E3,9.1E1,1.521E3,2.449E3,5.1E1,6.333E3,5E0,8.6E1,1.515E3,6E0,5.97E2,1.852E3,5E0,4.6E1,4E1,6.293E3,5E0,1.51E3,2.2E1,5.75E2,2.21E2,1.631E3,6E0,3.4E1,2.2E1,6.271E3,1.505E3,5E0,7E0,5.68E2,7E0,2.14E2,7.7E1,1.554E3,5E0,1.7E1,1.2E1,6.259E3,1.091E3,4.14E2,5E0,5.63E2,7E0,2.07E2,6.4E1,1.49E3],"tree_param":{"num_deleted":"0","num_feature":"744","num_nodes":"49","size_leaf_vector":"0"}},{"base_weights":[1.8333372E1,5.285781E0,3.9183456E1,3.9402292E0,5.019919E-1,1.0511518E0,6.3347927E1,9.390144E1,3.3027563E0,7.1741533E-1,4.0296078E-1,6.1847944E0,8.131235E1,1.5569685E-1,5.032922E-1,9.181014E1,2.7711852E0,6.504652E-1,8.240487E-2,8.4801406E-1,5.5536015E1,1.5840919E0,9.287833E1,1.6204795E-1,4.9723354E-1,4.8530504E-1,2.4756181E0,3.7135805E-3,6.0080075E-1,8.319679E-2,3.255058E-3,3.381923E-3,9.20739E1,1.6479781E-1,6.996521E-1,5.177311E-1,9.769651E1,3.8205338E-1,1.0737759E-2,3.0180353E-3,9.348923E-4,1.6217837E-1,5.0263005E-1,1.3498031E-3,3.5709168E-3,3.4999785E-3,1.1395692E-3,1.0957886E-2,5.0800085E-1],"categories":[],"categories_nodes":[],"categories_segments":[],"categories_sizes":[],"default_left":[0,0,0,0,0,0,0,0,0,0,0,0,0,0,0,0,0,0,0,0,0,0,0,0,0,0,0,0,0,0,0,0,0,0,0,0,0,0,0,0,0,0,0,0,0,0,0,0,0],"id":3,"left_children":[1,3,5,7,-1,9,11,13,15,17,-1,19,21,-1,-1,23,25,27,-1,29,31,33,35,-1,-1,-1,37,-1,39,-1,-1,-1,41,-1,43,45,47,-1,-1,-1,-1,-1,-1,-1,-1,-1,-1,-1,-1],"loss_changes":[2.8385888E6,8.210745E5,3.700879E6,3.6267044E5,0E0,4.1295082E4,2.523868E6,1.4143656E4,2.9550778E5,1.6210701E3,0E0,1.551786E5,1.724614E6,0E0,0E0,1.2149656E4,1.7389823E5,6.161133E0,0E0,1.639976E3,1.1514419E5,6.5769854E3,7.26829E5,0E0,0E0,0E0,1.509839E5,0E0,8.5305786E-1,0E0,0E0,0E0,1.2472844E4,0E0,9.719391E-1,3.9330406E0,5.78446E5,0E0,0E0,0E0,0E0,0E0,0E0,0E0,0E0,0E0,0E0,0E0,0E0],"parents":[2147483647,0,0,1,1,2,2,3,3,5,5,6,6,7,7,8,8,9,9,11,11,12,12,15,15,16,16,17,17,19,19,20,20,21,21,22,22,26,26,28,28,32,32,34,34,35,35,36,36],"right_children":[2,4,6,8,-1,10,12,14,16,18,-1,20,22,-1,-1,24,26,28,-1,30,32,34,36,-1,-1,-1,38,-1,40,-1,-1,-1,42,-1,44,46,48,-1,-1,-1,-1,-1,-1,-1,-1,-1,-1,-1,-1],"split_conditions":[1.7805573E-1,2.2360094E0,1.3860382E-1,-1.1314386E0,5.019919E-1,1.4797697E0,1.5320805E-1,-4.624241E-1,-1.1314386E0,1.6373303E0,4.0296078E-1,6.6782963E-1,1.3860382E-1,1.5569685E-1,5.032922E-1,-7.6805997E-1,-1.2070379E0,1.3221216E-1,8.240487E-2,-1.638432E0,1.7586878E-1,-1.0047332E0,2.3819858E-2,1.6204795E-1,4.9723354E-1,4.8530504E-1,-1.128449E0,3.7135805E-3,2.3699E0,8.319679E-2,3.255058E-3,3.381923E-3,1.00342505E-1,1.6479781E-1,-3.9368706E0,8.651575E-2,7.7992536E-2,3.8205338E-1,1.0737759E-2,3.0180353E-3,9.348923E-4,1.6217837E-1,5.0263005E-1,1.3498031E-3,3.5709168E-3,3.4999785E-3,1.1395692E-3,1.0957886E-2,5.0800085E-1],"split_indices":[555,349,533,247,0,27,245,0,495,720,0,247,409,0,0,109,402,557,0,350,501,320,223,0,0,0,61,0,135,0,0,0,564,0,417,470,121,0,0,0,0,0,0,0,0,0,0,0,0],"split_type":[0,0,0,0,0,0,0,0,0,0,0,0,0,0,0,0,0,0,0,0,0,0,0,0,0,0,0,0,0,0,0,0,0,0,0,0,0,0,0,0,0,0,0,0,0,0,0,0,0],"sum_hessian":[1.0434E4,6.419E3,4.015E3,6.331E3,8.8E1,1.558E3,2.457E3,4.3E1,6.288E3,1.553E3,5E0,5.88E2,1.869E3,5E0,3.8E1,3.6E1,6.252E3,1.548E3,5E0,5.32E2,5.6E1,2.37E2,1.632E3,5E0,3.1E1,1.8E1,6.234E3,5.33E2,1.015E3,5E0,5.27E2,2.3E1,3.3E1,5E0,2.32E2,8.1E1,1.551E3,2.6E1,6.208E3,1.007E3,8E0,5E0,2.8E1,9E0,2.23E2,4.8E1,3.3E1,6.1E1,1.49E3],"tree_param":{"num_deleted":"0","num_feature":"744","num_nodes":"49","size_leaf_vector":"0"}},{"base_weights":[1.7937223E1,5.7264895E0,3.8036957E1,4.2831707E0,5.017013E-1,1.0908297E0,6.1708767E1,8.735098E1,3.6609008E0,3.9913413E-1,7.565503E-1,6.845945E0,8.065077E1,3.034634E-4,4.9982128E-1,4.8206052E-1,3.3450449E0,1.6122998E-1,6.220311E-1,4.9381804E-1,2.3994155E0,1.9889631E0,9.244673E1,4.7922897E-1,3.058519E0,3.0663466E-1,6.315721E-1,3.984513E-1,9.9966776E-1,2.4289235E-1,6.5556335E-1,1.8066188E0,9.7625946E1,3.7595087E-1,1.417167E-2,2.3984455E-3,-1.0385637E-5,3.0375058E-3,3.5534827E-3,1.6169828E-1,3.219902E-3,3.4202759E-3,1.526381E-3,2.8787437E-3,8.3013944E-2,2.7130707E-3,5.095086E-1],"categories":[],"categories_nodes":[],"categories_segments":[],"categories_sizes":[],"default_left":[0,0,0,0,0,0,0,0,0,0,0,0,0,0,0,0,0,0,0,0,0,0,0,0,0,0,0,0,0,0,0,0,0,0,0,0,0,0,0,0,0,0,0,0,0,0,0],"id":4,"left_children":[1,3,5,7,-1,9,11,13,15,-1,17,19,21,-1,-1,-1,23,-1,25,-1,27,29,31,-1,33,35,37,-1,39,-1,41,43,45,-1,-1,-1,-1,-1,-1,-1,-1,-1,-1,-1,-1,-1,-1],"loss_changes":[2.5608758E6,8.860726E5,3.4487995E6,3.301926E5,0E0,4.0465297E4,2.4969E6,5.2269188E4,1.8557003E5,0E0,6.471857E3,2.5241428E5,1.657383E6,0E0,0E0,0E0,1.6734978E5,0E0,4.130493E0,0E0,6.385737E4,1.4510096E4,7.28998E5,0E0,1.0175919E5,2.6880784E0,1.9160767E0,0E0,6.4554287E3,0E0,1.7793808E0,1.5393656E3,6.09897E5,0E0,0E0,0E0,0E0,0E0,0E0,0E0,0E0,0E0,0E0,0E0,0E0,0E0,0E0],"parents":[2147483647,0,0,1,1,2,2,3,3,5,5,6,6,7,7,8,8,10,10,11,11,12,12,16,16,18,18,20,20,21,21,22,22,24,24,25,25,26,26,28,28,30,30,31,31,32,32],"right_children":[2,4,6,8,-1,10,12,14,16,-1,18,20,22,-1,-1,-1,24,-1,26,-1,28,30,32,-1,34,36,38,-1,40,-1,42,44,46,-1,-1,-1,-1,-1,-1,-1,-1,-1,-1,-1,-1,-1,-1],"split_conditions":[1.7805573E-1,2.2485163E0,1.3313793E-1,-1.128449E0,5.017013E-1,-1.4086397E0,1.6784915E-1,-7.0990425E-1,-1.2070379E0,3.9913413E-1,-1.0309917E0,-4.8299715E-2,1.3313793E-1,3.034634E-4,4.9982128E-1,4.8206052E-1,-1.2070379E0,1.6122998E-1,-2.5762935E0,4.9381804E-1,-8.668701E-1,-1.0041686E0,1.3313793E-1,4.7922897E-1,-1.1296748E0,1.7199943E0,2.325461E-1,3.984513E-1,-6.8073565E-1,2.4289235E-1,1.1624211E0,1.2814364E0,1.2013382E-1,3.7595087E-1,1.417167E-2,2.3984455E-3,-1.0385637E-5,3.0375058E-3,3.5534827E-3,1.6169828E-1,3.219902E-3,3.4202759E-3,1.526381E-3,2.8787437E-3,8.3013944E-2,2.7130707E-3,5.095086E-1],"split_indices":[90,256,68,61,0,61,524,28,619,0,332,67,192,0,0,0,371,0,151,0,103,103,37,0,185,414,4,0,134,0,228,458,214,0,0,0,0,0,0,0,0,0,0,0,0,0,0],"split_type":[0,0,0,0,0,0,0,0,0,0,0,0,0,0,0,0,0,0,0,0,0,0,0,0,0,0,0,0,0,0,0,0,0,0,0,0,0,0,0,0,0,0,0,0,0,0,0],"sum_hessian":[1.0434E4,6.492E3,3.942E3,6.396E3,9.6E1,1.54E3,2.402E3,4.6E1,6.35E3,5E0,1.535E3,6.17E2,1.785E3,6E0,4E1,2E1,6.33E3,5E0,1.53E3,2.7E1,5.9E2,2.33E2,1.552E3,1.8E1,6.312E3,4.7E1,1.483E3,9E0,5.81E2,5E0,2.28E2,8.4E1,1.468E3,1.8E1,6.294E3,3E1,1.7E1,1.149E3,3.34E2,5E0,5.76E2,2.09E2,1.9E1,7.9E1,5E0,6.2E1,1.406E3],"tree_param":{"num_deleted":"0","num_feature":"744","num_nodes":"47","size_leaf_vector":"0"}},{"base_weights":[1.8163956E1,5.6325727E0,3.874245E1,4.1003976E0,5.0100046E-1,1.340701E0,6.2426514E1,8.769093E1,3.4536426E0,8.733036E-1,4.2949724E-1,5.199876E0,8.1243645E1,4.9878696E-1,7.030376E-4,7.9641075E1,3.0644836E0,6.719102E-1,2.3593498E1,4.7669795E-1,2.3574932E0,3.7628314E0,9.253276E1,2.1144624E-3,4.8772892E-1,4.8209465E-1,2.7627041E0,8.243729E-2,6.0372996E-1,2.1019762E-3,2.4210681E-1,3.95667E-1,9.623454E-1,4.0457606E-1,1.561813E0,2.9814315E0,9.7473694E1,3.7825575E-1,1.26314135E-2,6.2010286E-4,3.0524628E-3,1.6285571E-1,3.012416E-3,1.6218247E-1,3.3028978E-3,2.665576E-3,1.6292048E-1,2.3565826E-3,5.083155E-1],"categories":[],"categories_nodes":[],"categories_segments":[],"categories_sizes":[],"default_left":[0,0,0,0,0,0,0,0,0,0,0,0,0,0,0,0,0,0,0,0,0,0,0,0,0,0,0,0,0,0,0,0,0,0,0,0,0,0,0,0,0,0,0,0,0,0,0,0,0],"id":5,"left_children":[1,3,5,7,-1,9,11,13,15,17,-1,19,21,-1,-1,23,25,27,29,-1,31,33,35,-1,-1,-1,37,-1,39,-1,-1,-1,41,-1,43,45,47,-1,-1,-1,-1,-1,-1,-1,-1,-1,-1,-1,-1],"loss_changes":[2.7201368E6,9.496501E5,3.53652E6,3.4852856E5,0E0,6.1110297E4,2.631687E6,5.2251906E4,1.8959347E5,7.0293804E3,0E0,1.5503562E5,1.60845E6,0E0,0E0,4.601583E4,1.7922225E5,1.632001E3,7.726771E3,0E0,6.3013293E4,3.9785098E4,7.09925E5,0E0,0E0,0E0,1.09252625E5,0E0,4.6883545E0,0E0,0E0,0E0,6.5670083E3,0E0,6.37497E3,6.1640757E3,6.18218E5,0E0,0E0,0E0,0E0,0E0,0E0,0E0,0E0,0E0,0E0,0E0,0E0],"parents":[2147483647,0,0,1,1,2,2,3,3,5,5,6,6,7,7,8,8,9,9,11,11,12,12,15,15,16,16,17,17,18,18,20,20,21,21,22,22,26,26,28,28,32,32,34,34,35,35,36,36],"right_children":[2,4,6,8,-1,10,12,14,16,18,-1,20,22,-1,-1,24,26,28,30,-1,32,34,36,-1,-1,-1,38,-1,40,-1,-1,-1,42,-1,44,46,48,-1,-1,-1,-1,-1,-1,-1,-1,-1,-1,-1,-1],"split_conditions":[1.7805573E-1,2.2485163E0,1.5500154E-1,-1.1296748E0,5.0100046E-1,1.5470476E0,1.22065544E-1,-4.9856162E-1,-1.1314386E0,1.3052576E0,4.2949724E-1,-4.8449118E-2,1.6057603E-1,4.9878696E-1,7.030376E-4,-7.3392206E-1,-1.2039068E0,-1.0838991E0,1.5500154E-1,4.7669795E-1,-9.774754E-1,-1.2888494E0,1.3313793E-1,2.1144624E-3,4.8772892E-1,4.8209465E-1,-1.1314386E0,8.243729E-2,-3.0338037E0,2.1019762E-3,2.4210681E-1,3.95667E-1,-7.4590915E-1,4.0457606E-1,-1.0608528E0,1.0309685E0,1.2193507E-1,3.7825575E-1,1.26314135E-2,6.2010286E-4,3.0524628E-3,1.6285571E-1,3.012416E-3,1.6218247E-1,3.3028978E-3,2.665576E-3,1.6292048E-1,2.3565826E-3,5.083155E-1],"split_indices":[276,39,161,185,0,58,710,170,309,162,0,160,130,0,0,272,123,177,316,0,549,168,99,0,0,0,495,0,678,0,0,0,321,0,41,148,369,0,0,0,0,0,0,0,0,0,0,0,0],"split_type":[0,0,0,0,0,0,0,0,0,0,0,0,0,0,0,0,0,0,0,0,0,0,0,0,0,0,0,0,0,0,0,0,0,0,0,0,0,0,0,0,0,0,0,0,0,0,0,0,0],"sum_hessian":[1.0548E4,6.557E3,3.991E3,6.454E3,1.03E2,1.548E3,2.443E3,4.8E1,6.406E3,1.541E3,7E0,6.05E2,1.838E3,4.2E1,6E0,3.1E1,6.375E3,1.529E3,1.2E1,1.7E1,5.88E2,2.34E2,1.604E3,6E0,2.5E1,1.9E1,6.356E3,5E0,1.524E3,7E0,5E0,9E0,5.79E2,5E0,2.29E2,8.4E1,1.52E3,1.9E1,6.337E3,2.2E1,1.502E3,5E0,5.74E2,5E0,2.24E2,7.9E1,5E0,6.3E1,1.457E3],"tree_param":{"num_deleted":"0","num_feature":"744","num_nodes":"49","size_leaf_vector":"0"}},{"base_weights":[1.779831E1,5.2085857E0,3.7623367E1,3.8612761E0,9.800998E1,1.432289E0,6.1426228E1,4.952848E-1,3.3002906E0,2.3061344E-1,5.01164E-1,1.1093436E0,4.0046623E-1,9.075542E1,2.7141642E1,8.2736946E1,2.7517047E0,2.4422438E-1,8.5192895E-1,1.3317163E0,1.0218739E2,5.140293E-1,1.7390154E1,2.107221E-3,4.9472365E-1,4.807902E-1,2.4393673E0,7.216467E-1,1.4028789E-1,8.210643E-2,6.377385E-1,2.6319898E-3,1.0370186E2,5.819346E1,9.627322E0,4.7169408E-1,1.0881588E-2,5.0473116E-2,2.9571855E-3,3.35328E-3,7.608637E-4,2.8947766E-3,5.2398735E-1,2.8714195E-3,4.1606498E-1,3.2679588E-2,4.4156155E-1],"categories":[],"categories_nodes":[],"categories_segments":[],"categories_sizes":[],"default_left":[0,0,0,0,0,0,0,0,0,0,0,0,0,0,0,0,0,0,0,0,0,0,0,0,0,0,0,0,0,0,0,0,0,0,0,0,0,0,0,0,0,0,0,0,0,0,0],"id":6,"left_children":[1,3,5,7,9,11,13,-1,15,-1,-1,17,-1,19,21,23,25,-1,27,29,31,-1,33,-1,-1,-1,35,37,-1,-1,39,-1,41,43,45,-1,-1,-1,-1,-1,-1,-1,-1,-1,-1,-1,-1],"loss_changes":[2.581602E6,7.9067825E5,3.460735E6,3.3269966E5,3.47425E3,4.0381285E4,2.433206E6,0E0,2.7002E5,0E0,0E0,1.947143E4,0E0,1.334374E6,8.233047E5,5.661903E4,1.7944422E5,0E0,5.576452E3,1.5464172E3,1.78109E5,0E0,3.1383638E5,0E0,0E0,0E0,1.4821058E5,1.9141699E3,0E0,0E0,1.9919777E0,0E0,1.28746E5,2.2840594E5,2.0259147E5,0E0,0E0,0E0,0E0,0E0,0E0,0E0,0E0,0E0,0E0,0E0,0E0],"parents":[2147483647,0,0,1,1,2,2,3,3,4,4,5,5,6,6,8,8,11,11,13,13,14,14,15,15,16,16,18,18,19,19,20,20,22,22,26,26,27,27,30,30,32,32,33,33,34,34],"right_children":[2,4,6,8,10,12,14,-1,16,-1,-1,18,-1,20,22,24,26,-1,28,30,32,-1,34,-1,-1,-1,36,38,-1,-1,40,-1,42,44,46,-1,-1,-1,-1,-1,-1,-1,-1,-1,-1,-1,-1],"split_conditions":[1.6770142E-1,2.2360094E0,1.5500154E-1,-1.2070379E0,6.8422896E-1,1.5628185E0,5.0480586E-1,4.952848E-1,-1.128449E0,2.3061344E-1,5.01164E-1,-1.0094702E0,4.0046623E-1,1.3860382E-1,1.5503787E-1,-7.6615596E-1,-1.2070379E0,2.4422438E-1,1.5988674E0,-9.184628E-1,-1.497794E-1,5.140293E-1,1.9430967E-2,2.107221E-3,4.9472365E-1,4.807902E-1,-1.2070379E0,1.7805573E-1,1.4028789E-1,8.210643E-2,1.3956994E0,2.6319898E-3,3.518652E-2,2.1416622E-1,1.9321998E0,4.7169408E-1,1.0881588E-2,5.0473116E-2,2.9571855E-3,3.35328E-3,7.608637E-4,2.8947766E-3,5.2398735E-1,2.8714195E-3,4.1606498E-1,3.2679588E-2,4.4156155E-1],"split_indices":[555,318,440,309,677,554,441,0,123,0,0,433,0,409,439,28,433,0,629,456,307,0,472,0,0,0,650,555,0,0,690,0,378,561,717,0,0,0,0,0,0,0,0,0,0,0,0],"split_type":[0,0,0,0,0,0,0,0,0,0,0,0,0,0,0,0,0,0,0,0,0,0,0,0,0,0,0,0,0,0,0,0,0,0,0,0,0,0,0,0,0,0,0,0,0,0,0],"sum_hessian":[1.0343E4,6.327E3,4.016E3,6.238E3,8.9E1,1.594E3,2.422E3,3.5E1,6.203E3,5E0,8.4E1,1.589E3,5E0,1.304E3,1.118E3,4.1E1,6.162E3,7E0,1.582E3,1.48E2,1.156E3,1.26E2,9.92E2,7E0,3.4E1,1.9E1,6.143E3,1.576E3,6E0,5E0,1.43E2,1.7E1,1.139E3,1.57E2,8.35E2,1.6E1,6.127E3,2E1,1.556E3,1.33E2,1E1,1.2E1,1.127E3,4.8E1,1.09E2,8.05E2,3E1],"tree_param":{"num_deleted":"0","num_feature":"744","num_nodes":"47","size_leaf_vector":"0"}},{"base_weights":[1.7647518E1,5.0523033E0,3.8091393E1,3.737449E0,9.720109E1,1.5099903E0,6.1446262E1,8.3111916E1,3.2576678E0,2.28426E-1,4.9692172E-1,4.2405054E-1,1.0535071E0,5.400779E0,8.01796E1,1.7679369E-3,4.9183947E-1,2.9735556E0,4.785606E-1,7.245302E-1,3.965194E-1,4.6024024E-1,1.9501256E0,9.859004E-1,9.097659E1,4.6268755E-1,2.7824552E0,1.6046058E-1,5.918589E-1,3.9771873E-1,1.0863235E0,8.16028E-2,5.17752E-1,4.911763E-1,9.544875E1,3.3863312E-1,1.2806161E-2,1.3231898E-3,2.9963122E-3,2.83833E-3,2.3642272E-1,2.740744E-3,-2.8001298E-3,2.91658E-3,-4.8159462E-4,9.808957E-3,4.978669E-1],"categories":[],"categories_nodes":[],"categories_segments":[],"categories_sizes":[],"default_left":[0,0,0,0,0,0,0,0,0,0,0,0,0,0,0,0,0,0,0,0,0,0,0,0,0,0,0,0,0,0,0,0,0,0,0,0,0,0,0,0,0,0,0,0,0,0,0],"id":7,"left_children":[1,3,5,7,9,11,13,15,17,-1,-1,-1,19,21,23,-1,-1,25,-1,27,-1,-1,29,31,33,-1,35,-1,37,-1,39,-1,41,43,45,-1,-1,-1,-1,-1,-1,-1,-1,-1,-1,-1,-1],"loss_changes":[2.7073918E6,7.8801925E5,3.4245255E6,2.4400828E5,3.4515625E3,5.9301055E4,2.567962E6,4.8536656E4,1.6717903E5,0E0,0E0,0E0,3.996611E4,1.834411E5,1.567586E6,0E0,0E0,1.0851048E5,0E0,6.4216597E3,0E0,0E0,3.9566887E4,1.574083E3,6.52839E5,0E0,9.097866E4,0E0,3.3358154E0,0E0,1.4027285E4,0E0,7.5508537E0,4.3768787E0,5.92545E5,0E0,0E0,0E0,0E0,0E0,0E0,0E0,0E0,0E0,0E0,0E0,0E0],"parents":[2147483647,0,0,1,1,2,2,3,3,4,4,5,5,6,6,7,7,8,8,12,12,13,13,14,14,17,17,19,19,22,22,23,23,24,24,26,26,28,28,30,30,32,32,33,33,34,34],"right_children":[2,4,6,8,10,12,14,16,18,-1,-1,-1,20,22,24,-1,-1,26,-1,28,-1,-1,30,32,34,-1,36,-1,38,-1,40,-1,42,44,46,-1,-1,-1,-1,-1,-1,-1,-1,-1,-1,-1,-1],"split_conditions":[1.7805573E-1,2.2360094E0,1.5500154E-1,-1.128449E0,3.1213918E-1,-1.2070379E0,1.6770142E-1,-6.584827E-1,2.0078893E0,2.28426E-1,4.9692172E-1,4.2405054E-1,1.5362842E-1,-1.0287492E0,1.3313793E-1,1.7679369E-3,4.9183947E-1,-1.2070379E0,4.785606E-1,-1.0057863E0,3.965194E-1,4.6024024E-1,-1.0986875E0,-9.794453E-1,1.1127431E-1,4.6268755E-1,-1.1314386E0,1.6046058E-1,-2.565409E0,3.9771873E-1,2.4715426E0,8.16028E-2,2.4811003E0,1.2641675E0,1.1179526E-1,3.3863312E-1,1.2806161E-2,1.3231898E-3,2.9963122E-3,2.83833E-3,2.3642272E-1,2.740744E-3,-2.8001298E-3,2.91658E-3,-4.8159462E-4,9.808957E-3,4.978669E-1],"split_indices":[214,690,192,123,120,278,555,59,709,0,0,0,191,433,316,0,0,743,0,123,0,0,289,196,347,0,247,0,89,0,298,0,494,173,121,0,0,0,0,0,0,0,0,0,0,0,0],"split_type":[0,0,0,0,0,0,0,0,0,0,0,0,0,0,0,0,0,0,0,0,0,0,0,0,0,0,0,0,0,0,0,0,0,0,0,0,0,0,0,0,0,0,0,0,0,0,0],"sum_hessian":[1.0514E4,6.507E3,4.007E3,6.417E3,9E1,1.562E3,2.445E3,3.7E1,6.38E3,5E0,8.5E1,7E0,1.555E3,6.13E2,1.832E3,6E0,3.1E1,6.362E3,1.8E1,1.55E3,5E0,2.2E1,5.91E2,2.2E2,1.612E3,1.2E1,6.35E3,5E0,1.545E3,5E0,5.86E2,5E0,2.15E2,7.6E1,1.536E3,2E1,6.33E3,3.6E1,1.509E3,5.81E2,5E0,2.1E2,5E0,6.6E1,1E1,6.5E1,1.471E3],"tree_param":{"num_deleted":"0","num_feature":"744","num_nodes":"47","size_leaf_vector":"0"}},{"base_weights":[1.7781126E1,5.3492327E0,3.7606964E1,4.045633E0,4.9178454E-1,1.1490111E0,6.0783077E1,8.782182E1,3.3565743E0,8.240532E-1,3.9359E-1,6.644232E0,7.942155E1,4.9687025E-1,7.3630904E-4,9.055469E1,2.8312452E0,3.1717786E-1,5.609866E-1,8.477303E1,2.8019645E0,1.0109038E0,9.054846E1,1.5413658E-1,4.915728E-1,8.779703E1,2.5091295E0,5.694529E-1,1.0394211E-1,8.037118E-2,4.8900446E-1,4.282926E-1,1.6118995E0,8.1599236E-2,5.579979E-1,5.5702716E-1,9.5598465E1,2.274502E-1,4.7766075E-1,3.5987803E-1,1.1336531E-2,2.8596246E-3,3.2062127E-4,-8.4614847E-4,1.5283339E-3,4.6036853E-3,2.7794108E-1,3.1564506E-3,1.0943612E-3,3.1104241E-3,-2.3726803E-4,2.7937446E-2,4.9588475E-1],"categories":[],"categories_nodes":[],"categories_segments":[],"categories_sizes":[],"default_left":[0,0,0,0,0,0,0,0,0,0,0,0,0,0,0,0,0,0,0,0,0,0,0,0,0,0,0,0,0,0,0,0,0,0,0,0,0,0,0,0,0,0,0,0,0,0,0,0,0,0,0,0,0],"id":8,"left_children":[1,3,5,7,-1,9,11,13,15,17,-1,19,21,-1,-1,23,25,-1,27,29,31,33,35,-1,-1,37,39,41,43,-1,-1,-1,45,-1,47,49,51,-1,-1,-1,-1,-1,-1,-1,-1,-1,-1,-1,-1,-1,-1,-1,-1],"loss_changes":[2.5685515E6,7.762587E5,3.393639E6,3.644013E5,0E0,3.9272188E4,2.476951E6,5.211922E4,2.8683397E5,2.5587404E4,0E0,1.888971E5,1.593408E6,0E0,0E0,1.2808406E4,1.7028227E5,0E0,5.7838745E0,2.4021578E4,5.9184758E4,1.5672725E3,7.26806E5,0E0,0E0,1.1435156E3,1.0410189E5,1.7209778E0,1.7855967E0,0E0,0E0,0E0,2.2127889E4,0E0,5.177864E0,3.560917E0,4.86973E5,0E0,0E0,0E0,0E0,0E0,0E0,0E0,0E0,0E0,0E0,0E0,0E0,0E0,0E0,0E0,0E0],"parents":[2147483647,0,0,1,1,2,2,3,3,5,5,6,6,7,7,8,8,9,9,11,11,12,12,15,15,16,16,18,18,19,19,20,20,21,21,22,22,25,25,26,26,27,27,28,28,32,32,34,34,35,35,36,36],"right_children":[2,4,6,8,-1,10,12,14,16,18,-1,20,22,-1,-1,24,26,-1,28,30,32,34,36,-1,-1,38,40,42,44,-1,-1,-1,46,-1,48,50,52,-1,-1,-1,-1,-1,-1,-1,-1,-1,-1,-1,-1,-1,-1,-1,-1],"split_conditions":[1.6753986E-1,2.2485163E0,1.3313793E-1,-1.1314386E0,4.9178454E-1,1.5106572E0,1.674268E-1,-4.9856162E-1,-1.128449E0,-1.0523115E0,3.9359E-1,-7.9206556E-1,1.3313793E-1,4.9687025E-1,7.3630904E-4,-4.6061295E-1,-1.128449E0,3.1717786E-1,1.6651921E0,-3.2800373E-1,-8.0314636E-1,1.9899207E-1,7.3012985E-2,1.5413658E-1,4.915728E-1,-4.624241E-1,-1.1314386E0,3.764979E0,-1.7236976E-1,8.037118E-2,4.8900446E-1,4.282926E-1,2.4157965E0,8.1599236E-2,1.0451845E0,1.6103747E0,1.3493963E-1,2.274502E-1,4.7766075E-1,3.5987803E-1,1.1336531E-2,2.8596246E-3,3.2062127E-4,-8.4614847E-4,1.5283339E-3,4.6036853E-3,2.7794108E-1,3.1564506E-3,1.0943612E-3,3.1104241E-3,-2.3726803E-4,2.7937446E-2,4.9588475E-1],"split_indices":[431,256,285,340,0,27,90,325,154,247,0,599,254,0,0,434,30,0,535,425,568,431,316,0,0,0,526,36,321,0,0,0,111,0,556,649,555,0,0,0,0,0,0,0,0,0,0,0,0,0,0,0,0],"split_type":[0,0,0,0,0,0,0,0,0,0,0,0,0,0,0,0,0,0,0,0,0,0,0,0,0,0,0,0,0,0,0,0,0,0,0,0,0,0,0,0,0,0,0,0,0,0,0,0,0,0,0,0,0],"sum_hessian":[1.0421E4,6.406E3,4.015E3,6.319E3,8.7E1,1.561E3,2.454E3,5E1,6.269E3,1.556E3,5E0,6.29E2,1.825E3,4.4E1,6E0,3.6E1,6.233E3,5E0,1.551E3,2.8E1,6.01E2,2.27E2,1.598E3,5E0,3.1E1,2.2E1,6.211E3,1.522E3,2.9E1,5E0,2.3E1,7E0,5.94E2,5E0,2.22E2,8.5E1,1.513E3,5E0,1.7E1,2E1,6.191E3,1.514E3,8E0,1.2E1,1.7E1,5.88E2,6E0,1.81E2,4.1E1,7.7E1,8E0,5.8E1,1.455E3],"tree_param":{"num_deleted":"0","num_feature":"744","num_nodes":"53","size_leaf_vector":"0"}},{"base_weights":[1.7751675E1,5.513873E0,3.7823307E1,4.1991973E0,4.9010694E-1,1.2903872E0,6.1144535E1,8.628841E1,3.4904475E0,3.9356667E-1,9.6039385E-1,6.820134E0,7.9686295E1,4.9478382E-1,1.21858E-3,8.261421E1,2.9795127E0,6.939353E-1,3.164238E-1,4.8300418E-1,2.4396052E0,2.911458E0,8.992653E1,4.8476362E-1,5.375506E-4,7.7347595E1,2.6160529E0,8.136213E-2,6.265668E-1,4.1098395E-1,7.0055366E-1,3.945701E-1,5.086442E-1,1.6129075E0,9.47542E1,1.8901628E-3,4.8082986E-1,4.53058E-1,1.21959485E-2,8.02593E-2,2.7984977E-3,8.06421E-2,2.6129177E-3,2.7268701E-3,-5.689273E-4,8.080508E-2,1.8745962E-3,1.4197503E-3,4.9448454E-1],"categories":[],"categories_nodes":[],"categories_segments":[],"categories_sizes":[],"default_left":[0,0,0,0,0,0,0,0,0,0,0,0,0,0,0,0,0,0,0,0,0,0,0,0,0,0,0,0,0,0,0,0,0,0,0,0,0,0,0,0,0,0,0,0,0,0,0,0,0],"id":9,"left_children":[1,3,5,7,-1,9,11,13,15,-1,17,19,21,-1,-1,23,25,27,-1,-1,29,31,33,-1,-1,35,37,-1,39,-1,41,-1,43,45,47,-1,-1,-1,-1,-1,-1,-1,-1,-1,-1,-1,-1,-1,-1],"loss_changes":[2.5546268E6,7.8543625E5,3.356293E6,3.704031E5,0E0,3.9126793E4,2.421148E6,5.9351438E4,2.551735E5,0E0,2.535474E4,2.4090823E5,1.408838E6,0E0,0E0,4.7877406E4,1.6949528E5,1.5833865E3,0E0,0E0,8.124569E4,3.873066E4,6.74022E5,0E0,0E0,4.410364E4,9.697416E4,0E0,1.5525491E3,0E0,1.5641771E3,0E0,4.92321E0,1.4914717E3,5.86786E5,0E0,0E0,0E0,0E0,0E0,0E0,0E0,0E0,0E0,0E0,0E0,0E0,0E0,0E0],"parents":[2147483647,0,0,1,1,2,2,3,3,5,5,6,6,7,7,8,8,10,10,11,11,12,12,15,15,16,16,17,17,20,20,21,21,22,22,25,25,26,26,28,28,30,30,32,32,33,33,34,34],"right_children":[2,4,6,8,-1,10,12,14,16,-1,18,20,22,-1,-1,24,26,28,-1,-1,30,32,34,-1,-1,36,38,-1,40,-1,42,-1,44,46,48,-1,-1,-1,-1,-1,-1,-1,-1,-1,-1,-1,-1,-1,-1],"split_conditions":[1.8847694E-1,2.2485163E0,1.5500154E-1,-1.128449E0,4.9010694E-1,-9.722611E-1,1.6752371E-1,-4.9856162E-1,-1.1296748E0,3.9356667E-1,1.6447071E0,-4.827317E-2,1.4953563E-1,4.9478382E-1,1.21858E-3,-5.1291275E-1,-1.1314386E0,-1.7192473E0,3.164238E-1,4.8300418E-1,-9.7987545E-1,-1.1354506E0,1.3313793E-1,4.8476362E-1,5.375506E-4,-8.815626E-1,-1.2039068E0,8.136213E-2,-1.0067133E0,4.1098395E-1,-6.5388227E-1,3.945701E-1,2.2657707E0,2.608813E-1,1.6752371E-1,1.8901628E-3,4.8082986E-1,4.53058E-1,1.21959485E-2,8.02593E-2,2.7984977E-3,8.06421E-2,2.6129177E-3,2.7268701E-3,-5.689273E-4,8.080508E-2,1.8745962E-3,1.4197503E-3,4.9448454E-1],"split_indices":[307,101,254,30,0,309,741,15,185,0,35,253,626,0,0,170,371,474,0,0,506,604,347,0,0,47,123,0,185,0,289,0,432,338,400,0,0,0,0,0,0,0,0,0,0,0,0,0,0],"split_type":[0,0,0,0,0,0,0,0,0,0,0,0,0,0,0,0,0,0,0,0,0,0,0,0,0,0,0,0,0,0,0,0,0,0,0,0,0,0,0,0,0,0,0,0,0,0,0,0,0],"sum_hessian":[1.04E4,6.462E3,3.938E3,6.373E3,8.9E1,1.535E3,2.403E3,5.3E1,6.32E3,5E0,1.53E3,6.12E2,1.791E3,4.6E1,7E0,3.9E1,6.281E3,1.525E3,5E0,2.7E1,5.85E2,2.11E2,1.58E3,3.3E1,6E0,2.9E1,6.252E3,5E0,1.52E3,1.1E1,5.74E2,5E0,2.06E2,8.2E1,1.498E3,6E0,2.3E1,1.1E1,6.241E3,5E0,1.515E3,5E0,5.69E2,1.95E2,1.1E1,5E0,7.7E1,6.3E1,1.435E3],"tree_param":{"num_deleted":"0","num_feature":"744","num_nodes":"49","size_leaf_vector":"0"}},{"base_weights":[1.7288437E1,5.1576767E0,3.7079937E1,3.8298497E0,9.551414E1,1.3386835E0,5.9813385E1,9.517007E1,3.055268E0,1.499003E-1,4.9353114E-1,3.9230886E-1,1.010772E0,5.718373E0,7.812452E1,2.3120134E-1,4.9390072E-1,8.8699295E1,2.597975E0,8.139937E-1,2.3540233E-1,6.732549E1,2.2659967E0,1.3901708E0,8.8647194E1,1.5389061E-1,4.8616987E-1,8.302677E1,2.2180905E0,1.5904169E-1,6.8099844E-1,2.6865103E-3,4.8482215E-1,3.8037154E-1,1.0392292E0,1.594992E-1,4.5498142E-1,4.641542E-1,9.356681E1,7.452838E-2,4.8004138E-1,3.6959594E-1,9.736292E-3,1.5715492E-1,2.7437084E-3,1.6024457E-1,3.411055E-3,2.662581E-3,-7.233624E-5,2.5149873E-3,-4.6623847E-4,7.5683594E-3,4.902696E-1],"categories":[],"categories_nodes":[],"categories_segments":[],"categories_sizes":[],"default_left":[0,0,0,0,0,0,0,0,0,0,0,0,0,0,0,0,0,0,0,0,0,0,0,0,0,0,0,0,0,0,0,0,0,0,0,0,0,0,0,0,0,0,0,0,0,0,0,0,0,0,0,0,0],"id":10,"left_children":[1,3,5,7,9,11,13,15,17,-1,-1,-1,19,21,23,-1,-1,25,27,29,-1,31,33,35,37,-1,-1,39,41,-1,43,-1,-1,-1,45,-1,47,49,51,-1,-1,-1,-1,-1,-1,-1,-1,-1,-1,-1,-1,-1,-1],"loss_changes":[2.5008002E6,7.745476E5,3.2162355E6,4.5011862E5,1.50948125E4,3.8823695E4,2.395927E6,2.5698438E3,2.4701808E5,0E0,0E0,0E0,1.3853036E4,1.3024315E5,1.459264E6,0E0,0E0,1.204575E4,1.9172108E5,6.2698843E3,0E0,6.4237094E4,5.2608824E4,6.234602E3,6.89484E5,0E0,0E0,2.39185E4,1.2126364E5,0E0,6.1717783E3,0E0,0E0,0E0,6.320958E3,0E0,7.922661E0,2.0034924E0,6.21608E5,0E0,0E0,0E0,0E0,0E0,0E0,0E0,0E0,0E0,0E0,0E0,0E0,0E0,0E0],"parents":[2147483647,0,0,1,1,2,2,3,3,4,4,5,5,6,6,7,7,8,8,12,12,13,13,14,14,17,17,18,18,19,19,21,21,22,22,23,23,24,24,27,27,28,28,30,30,34,34,36,36,37,37,38,38],"right_children":[2,4,6,8,10,12,14,16,18,-1,-1,-1,20,22,24,-1,-1,26,28,30,-1,32,34,36,38,-1,-1,40,42,-1,44,-1,-1,-1,46,-1,48,50,52,-1,-1,-1,-1,-1,-1,-1,-1,-1,-1,-1,-1,-1,-1],"split_conditions":[1.6770142E-1,2.2485163E0,1.5500154E-1,-1.1314386E0,3.654233E-1,-1.0873777E0,1.6809721E-1,-1.1465746E0,-1.128449E0,1.499003E-1,4.9353114E-1,3.9230886E-1,1.5082121E0,-4.9616066E-1,1.22206114E-1,2.3120134E-1,4.9390072E-1,-5.093966E-1,-1.1314386E0,-1.0309917E0,2.3540233E-1,9.411854E-2,-6.817564E-1,-1.0315013E0,8.394479E-2,1.5389061E-1,4.8616987E-1,-4.624241E-1,-1.1314386E0,1.5904169E-1,-9.722611E-1,2.6865103E-3,4.8482215E-1,3.8037154E-1,-4.6699637E-1,1.594992E-1,1.2636253E0,1.3839073E0,7.519944E-2,7.452838E-2,4.8004138E-1,3.6959594E-1,9.736292E-3,1.5715492E-1,2.7437084E-3,1.6024457E-1,3.411055E-3,2.662581E-3,-7.233624E-5,2.5149873E-3,-4.6623847E-4,7.5683594E-3,4.902696E-1],"split_indices":[555,256,440,433,739,371,276,431,30,0,0,0,624,723,161,0,0,555,247,22,0,301,599,10,223,0,0,0,619,0,495,0,0,0,661,0,690,111,152,0,0,0,0,0,0,0,0,0,0,0,0,0,0],"split_type":[0,0,0,0,0,0,0,0,0,0,0,0,0,0,0,0,0,0,0,0,0,0,0,0,0,0,0,0,0,0,0,0,0,0,0,0,0,0,0,0,0,0,0,0,0,0,0,0,0,0,0,0,0],"sum_hessian":[1.0416E4,6.459E3,3.957E3,6.367E3,9.2E1,1.539E3,2.418E3,5.2E1,6.315E3,5E0,8.7E1,5E0,1.534E3,6.12E2,1.806E3,5E0,4.7E1,3.2E1,6.283E3,1.529E3,5E0,3.1E1,5.81E2,2.18E2,1.588E3,5E0,2.7E1,2.8E1,6.255E3,5E0,1.524E3,1E1,2.1E1,8E0,5.73E2,5E0,2.13E2,8.4E1,1.504E3,5E0,2.3E1,2.2E1,6.233E3,5E0,1.519E3,5E0,5.68E2,1.83E2,3E1,7.9E1,5E0,7E1,1.434E3],"tree_param":{"num_deleted":"0","num_feature":"744","num_nodes":"53","size_leaf_vector":"0"}},{"base_weights":[1.7513435E1,5.500927E0,3.699864E1,3.976315E0,4.8640254E-1,1.4662435E0,5.969626E1,8.81656E1,3.3147418E0,1.1396197E0,3.9454472E-1,3.3094757E0,7.757704E1,4.900709E-1,1.8202612E-3,8.9794914E1,2.7830255E0,4.455845E1,8.1383103E-1,6.494133E1,1.4098758E0,9.0848374E-1,8.806632E1,1.5198216E-1,4.8646677E-1,7.824539E1,2.3893228E0,1.689848E-3,3.923272E-1,6.134921E-1,1.6362276E1,2.2560915E-3,4.5333612E-1,3.1900227E-1,6.8864924E-1,8.052148E-2,4.4928232E-1,6.945044E0,9.372952E1,-2.0105415E-4,4.799013E-1,4.6056467E-1,1.0826803E-2,2.7278927E-3,8.137723E-2,2.397668E-1,2.4715678E-3,8.233238E-2,2.5173866E-3,2.4917887E-3,-9.235203E-4,4.151638E-1,2.0205867E-3,1.5228622E-2,4.9090213E-1],"categories":[],"categories_nodes":[],"categories_segments":[],"categories_sizes":[],"default_left":[0,0,0,0,0,0,0,0,0,0,0,0,0,0,0,0,0,0,0,0,0,0,0,0,0,0,0,0,0,0,0,0,0,0,0,0,0,0,0,0,0,0,0,0,0,0,0,0,0,0,0,0,0,0,0],"id":11,"left_children":[1,3,5,7,-1,9,11,13,15,17,-1,19,21,-1,-1,23,25,27,29,31,33,35,37,-1,-1,39,41,-1,-1,43,45,-1,-1,-1,47,-1,49,51,53,-1,-1,-1,-1,-1,-1,-1,-1,-1,-1,-1,-1,-1,-1,-1,-1],"loss_changes":[2.4434538E6,9.034061E5,3.21094E6,3.535837E5,0E0,3.9144305E4,2.449117E6,4.273047E4,2.8968988E5,2.1840629E4,0E0,6.851438E4,1.483206E6,0E0,0E0,1.26861875E4,1.8602805E5,1.7187365E4,4.773913E3,2.895407E4,2.559241E4,1.5454055E3,7.44388E5,0E0,0E0,4.514747E4,1.2508289E5,0E0,0E0,1.6006089E3,9.729834E3,0E0,0E0,0E0,1.6363411E3,0E0,6.999031E0,5.3434027E4,6.11629E5,0E0,0E0,0E0,0E0,0E0,0E0,0E0,0E0,0E0,0E0,0E0,0E0,0E0,0E0,0E0,0E0],"parents":[2147483647,0,0,1,1,2,2,3,3,5,5,6,6,7,7,8,8,9,9,11,11,12,12,15,15,16,16,17,17,18,18,19,19,20,20,21,21,22,22,25,25,26,26,29,29,30,30,34,34,36,36,37,37,38,38],"right_children":[2,4,6,8,-1,10,12,14,16,18,-1,20,22,-1,-1,24,26,28,30,32,34,36,38,-1,-1,40,42,-1,-1,44,46,-1,-1,-1,48,-1,50,52,54,-1,-1,-1,-1,-1,-1,-1,-1,-1,-1,-1,-1,-1,-1,-1,-1],"split_conditions":[1.7805573E-1,2.2485163E0,1.5500154E-1,-1.1314386E0,4.8640254E-1,1.5312392E-1,1.3087009E-1,-5.1291275E-1,-1.128449E0,-1.0093042E0,3.9454472E-1,-7.920895E-1,1.1127431E-1,4.900709E-1,1.8202612E-3,-3.646615E-1,-1.1314386E0,-4.8933125E-1,1.3313793E-1,-3.3288354E-1,-7.586962E-1,-8.204069E-1,6.410922E-2,1.5198216E-1,4.8646677E-1,-6.584827E-1,-1.2070379E0,1.689848E-3,3.923272E-1,1.6528327E0,-5.655528E-1,2.2560915E-3,4.5333612E-1,3.1900227E-1,-7.2657746E-1,8.052148E-2,1.452882E0,-1.2499599E-1,1.4406973E-1,-2.0105415E-4,4.799013E-1,4.6056467E-1,1.0826803E-2,2.7278927E-3,8.137723E-2,2.397668E-1,2.4715678E-3,8.233238E-2,2.5173866E-3,2.4917887E-3,-9.235203E-4,4.151638E-1,2.0205867E-3,1.5228622E-2,4.9090213E-1],"split_indices":[462,256,254,402,0,253,152,387,61,247,0,692,130,0,0,121,247,0,254,15,537,30,741,0,0,183,495,0,0,131,568,0,0,0,661,0,659,253,99,0,0,0,0,0,0,0,0,0,0,0,0,0,0,0,0],"split_type":[0,0,0,0,0,0,0,0,0,0,0,0,0,0,0,0,0,0,0,0,0,0,0,0,0,0,0,0,0,0,0,0,0,0,0,0,0,0,0,0,0,0,0,0,0,0,0,0,0,0,0,0,0,0,0],"sum_hessian":[1.0439E4,6.459E3,3.98E3,6.355E3,1.04E2,1.552E3,2.428E3,4.8E1,6.307E3,1.547E3,5E0,5.85E2,1.843E3,4.3E1,5E0,3.7E1,6.27E3,1E1,1.537E3,1.6E1,5.69E2,2.22E2,1.621E3,5E0,3.2E1,3.1E1,6.239E3,5E0,5E0,1.519E3,1.8E1,5E0,1.1E1,5E0,5.64E2,5E0,2.17E2,1.06E2,1.515E3,6E0,2.5E1,1.4E1,6.225E3,1.514E3,5E0,5E0,1.3E1,5E0,5.59E2,2.02E2,1.5E1,7E0,9.9E1,7.1E1,1.444E3],"tree_param":{"num_deleted":"0","num_feature":"744","num_nodes":"55","size_leaf_vector":"0"}},{"base_weights":[1.7394356E1,5.4333825E0,3.7190754E1,4.0253105E0,9.605337E1,1.1314977E0,6.061901E1,8.942565E1,3.3462827E0,2.2282602E-1,4.9034053E-1,8.0410993E-1,3.9316E-1,6.5190825E0,7.866188E1,7.839731E-2,4.8504165E-1,8.294341E1,2.822827E0,6.083882E-1,2.0382835E-1,4.5943794E-1,2.2369075E0,2.2022517E0,8.8844574E1,4.8464793E-1,6.3405035E-4,4.7284332E-1,2.4944336E0,5.417387E-1,8.0806874E-2,4.262334E-1,8.2864404E-1,7.6572603E-1,2.3650292E-1,1.515968E0,9.351134E1,4.4919035E-1,1.1600945E-2,2.7526417E-3,3.748127E-4,1.5602921E-1,2.3594105E-3,7.98462E-2,1.3429866E-3,7.9679586E-2,1.2920218E-3,1.3752582E-3,4.8534155E-1],"categories":[],"categories_nodes":[],"categories_segments":[],"categories_sizes":[],"default_left":[0,0,0,0,0,0,0,0,0,0,0,0,0,0,0,0,0,0,0,0,0,0,0,0,0,0,0,0,0,0,0,0,0,0,0,0,0,0,0,0,0,0,0,0,0,0,0,0,0],"id":12,"left_children":[1,3,5,7,9,11,13,15,17,-1,-1,19,-1,21,23,-1,-1,25,27,29,-1,-1,31,33,35,-1,-1,-1,37,39,-1,-1,41,43,-1,45,47,-1,-1,-1,-1,-1,-1,-1,-1,-1,-1,-1,-1],"loss_changes":[2.4708865E6,8.297536E5,3.3203925E6,3.7121434E5,3.7375E3,3.92043E4,2.324815E6,2.5935156E4,2.6464538E5,0E0,0E0,1.2034592E4,0E0,2.1809669E5,1.390595E6,0E0,0E0,4.8031094E4,1.900555E5,1.5783335E3,0E0,0E0,6.656807E4,1.3638064E4,6.42258E5,0E0,0E0,0E0,9.554198E4,6.104645E0,0E0,0E0,6.067629E3,1.5510669E3,0E0,1.4685056E3,4.96239E5,0E0,0E0,0E0,0E0,0E0,0E0,0E0,0E0,0E0,0E0,0E0,0E0],"parents":[2147483647,0,0,1,1,2,2,3,3,4,4,5,5,6,6,7,7,8,8,11,11,13,13,14,14,17,17,18,18,19,19,22,22,23,23,24,24,28,28,29,29,32,32,33,33,35,35,36,36],"right_children":[2,4,6,8,10,12,14,16,18,-1,-1,20,-1,22,24,-1,-1,26,28,30,-1,-1,32,34,36,-1,-1,-1,38,40,-1,-1,42,44,-1,46,48,-1,-1,-1,-1,-1,-1,-1,-1,-1,-1,-1,-1],"split_conditions":[1.8847694E-1,2.2485163E0,1.6057603E-1,-1.1314386E0,8.148676E-1,1.5242943E0,1.6752371E-1,-5.9143674E-1,-1.128449E0,2.2282602E-1,4.9034053E-1,1.5913048E0,3.9316E-1,-1.0287492E0,1.4953563E-1,7.839731E-2,4.8504165E-1,-4.9856162E-1,-1.2070379E0,1.6001378E0,2.0382835E-1,4.5943794E-1,-1.2937393E0,1.312185E0,1.3313793E-1,4.8464793E-1,6.3405035E-4,4.7284332E-1,-1.2070379E0,1.5740248E0,8.0806874E-2,4.262334E-1,-8.4978616E-1,-8.2825863E-1,2.3650292E-1,-8.668701E-1,2.8407268E-2,4.4919035E-1,1.1600945E-2,2.7526417E-3,3.748127E-4,1.5602921E-1,2.3594105E-3,7.98462E-2,1.3429866E-3,7.9679586E-2,1.2920218E-3,1.3752582E-3,4.8534155E-1],"split_indices":[307,101,130,216,89,131,710,210,30,0,0,164,0,619,502,0,0,15,402,691,0,0,464,24,223,0,0,0,309,566,0,0,402,433,0,103,90,0,0,0,0,0,0,0,0,0,0,0,0],"split_type":[0,0,0,0,0,0,0,0,0,0,0,0,0,0,0,0,0,0,0,0,0,0,0,0,0,0,0,0,0,0,0,0,0,0,0,0,0,0,0,0,0,0,0,0,0,0,0,0,0],"sum_hessian":[1.0435E4,6.506E3,3.929E3,6.408E3,9.8E1,1.548E3,2.381E3,4.9E1,6.359E3,5E0,9.3E1,1.543E3,5E0,5.96E2,1.785E3,5E0,4.4E1,4E1,6.319E3,1.537E3,6E0,2.7E1,5.69E2,2.1E2,1.575E3,3.4E1,6E0,2.1E1,6.298E3,1.532E3,5E0,8E0,5.61E2,2.05E2,5E0,8E1,1.495E3,1.1E1,6.287E3,1.503E3,2.9E1,5E0,5.56E2,5E0,2E2,5E0,7.5E1,5.5E1,1.44E3],"tree_param":{"num_deleted":"0","num_feature":"744","num_nodes":"49","size_leaf_vector":"0"}},{"base_weights":[1.7398083E1,5.27236E0,3.7344666E1,3.9193408E0,4.8245716E-1,1.542135E0,5.976143E1,8.536157E1,3.3778598E0,4.402936E-1,8.2923096E-1,5.3379626E0,7.798234E1,4.8361406E-1,4.3170596E-4,4.7037935E-1,3.0858126E0,5.011011E-1,3.8555926E-1,4.6483803E-1,2.1550457E0,2.6202157E0,8.843436E1,7.6948364E1,2.7656035E0,5.262026E-1,5.8768407E-2,3.839789E-1,8.1062156E-1,3.8545465E-1,3.9611536E-1,3.2138506E-1,9.310941E1,1.5716741E-3,4.697415E-1,1.2887808E-2,4.5422053E-1,-6.707232E-5,2.6583986E-3,-3.9155534E-3,7.6886296E-4,1.5667588E-1,2.3319575E-3,2.4587724E-3,-1.3525432E-4,-3.4531185E-3,2.0131175E-3,2.2984063E-3,4.8881E-1],"categories":[],"categories_nodes":[],"categories_segments":[],"categories_sizes":[],"default_left":[0,0,0,0,0,0,0,0,0,0,0,0,0,0,0,0,0,0,0,0,0,0,0,0,0,0,0,0,0,0,0,0,0,0,0,0,0,0,0,0,0,0,0,0,0,0,0,0,0],"id":13,"left_children":[1,3,5,7,-1,9,11,13,15,-1,17,19,21,-1,-1,-1,23,25,-1,-1,27,29,31,33,35,37,39,-1,41,-1,43,45,47,-1,-1,-1,-1,-1,-1,-1,-1,-1,-1,-1,-1,-1,-1,-1,-1],"loss_changes":[2.5418365E6,8.064016E5,3.1888885E6,2.8374847E5,0E0,9.433258E4,2.422444E6,4.114353E4,1.6916175E5,0E0,3.7985566E4,1.710755E5,1.441494E6,0E0,0E0,0E0,1.5066755E5,1.6663574E1,0E0,0E0,5.9548473E4,3.712271E4,6.62119E5,3.5763125E4,1.0494244E5,4.3511047E0,6.7332635E0,0E0,6.1238413E3,0E0,8.996334E0,7.142148E0,6.57928E5,0E0,0E0,0E0,0E0,0E0,0E0,0E0,0E0,0E0,0E0,0E0,0E0,0E0,0E0,0E0,0E0],"parents":[2147483647,0,0,1,1,2,2,3,3,5,5,6,6,7,7,8,8,10,10,11,11,12,12,16,16,17,17,20,20,21,21,22,22,23,23,24,24,25,25,26,26,28,28,30,30,31,31,32,32],"right_children":[2,4,6,8,-1,10,12,14,16,-1,18,20,22,-1,-1,-1,24,26,-1,-1,28,30,32,34,36,38,40,-1,42,-1,44,46,48,-1,-1,-1,-1,-1,-1,-1,-1,-1,-1,-1,-1,-1,-1,-1,-1],"split_conditions":[1.766269E-1,2.2485163E0,1.5500154E-1,-1.128449E0,4.8245716E-1,-1.0067133E0,1.6753986E-1,-4.9856162E-1,-1.2070379E0,4.402936E-1,1.6194963E-1,-1.2579778E-1,1.3860382E-1,4.8361406E-1,4.3170596E-4,4.7037935E-1,-1.1314386E0,1.0297523E0,3.8555926E-1,4.6483803E-1,-1.0166498E0,-4.8449118E-2,1.5320805E-1,-6.495476E-1,1.9768988E0,-3.0338037E0,-6.277809E-1,3.839789E-1,-9.4031674E-1,3.8545465E-1,9.130253E-1,-1.7102131E0,1.3313793E-1,1.5716741E-3,4.697415E-1,1.2887808E-2,4.5422053E-1,-6.707232E-5,2.6583986E-3,-3.9155534E-3,7.6886296E-4,1.5667588E-1,2.3319575E-3,2.4587724E-3,-1.3525432E-4,-3.4531185E-3,2.0131175E-3,2.2984063E-3,4.8881E-1],"split_indices":[28,39,37,30,0,30,431,15,619,0,36,36,409,0,0,0,278,535,0,0,258,36,121,39,722,585,330,0,320,0,411,232,130,0,0,0,0,0,0,0,0,0,0,0,0,0,0,0,0],"split_type":[0,0,0,0,0,0,0,0,0,0,0,0,0,0,0,0,0,0,0,0,0,0,0,0,0,0,0,0,0,0,0,0,0,0,0,0,0,0,0,0,0,0,0,0,0,0,0,0,0],"sum_hessian":[1.0509E4,6.537E3,3.972E3,6.443E3,9.4E1,1.53E3,2.442E3,4.1E1,6.402E3,1.1E1,1.519E3,6.13E2,1.829E3,3.6E1,5E0,1.9E1,6.383E3,1.514E3,5E0,2E1,5.93E2,2.23E2,1.606E3,2.6E1,6.357E3,1.432E3,8.2E1,9E0,5.84E2,5E0,2.18E2,8.1E1,1.525E3,5E0,2.1E1,6.345E3,1.2E1,1.4E1,1.418E3,7E0,7.5E1,5E0,5.79E2,1.78E2,4E1,5E0,7.6E1,7.3E1,1.452E3],"tree_param":{"num_deleted":"0","num_feature":"744","num_nodes":"49","size_leaf_vector":"0"}},{"base_weights":[1.7395546E1,5.310848E0,3.721929E1,3.968251E0,9.510906E1,1.1465526E0,5.9967613E1,8.7197716E1,3.2915788E0,2.2171235E-1,4.8588338E-1,7.553212E-1,4.020743E-1,4.8187876E0,7.770017E1,1.0170314E-3,4.827054E-1,8.309524E1,2.8926E0,2.3174302E-1,5.5940855E-1,4.620791E-1,1.827383E0,8.082596E-1,8.796105E1,7.305775E-2,4.7591037E-1,4.5823085E-1,2.6311088E0,4.929269E-1,7.944882E-2,4.0025488E-1,7.884085E-1,7.96393E-2,3.3913118E-1,2.9923224E-1,9.257891E1,4.509027E-1,1.2142085E-2,-7.557609E-4,2.5556898E-3,1.5478961E-1,2.1866253E-3,2.5291902E-3,4.5010642E-4,2.0410863E-3,-1.72035E-3,5.189917E-4,4.8461887E-1],"categories":[],"categories_nodes":[],"categories_segments":[],"categories_sizes":[],"default_left":[0,0,0,0,0,0,0,0,0,0,0,0,0,0,0,0,0,0,0,0,0,0,0,0,0,0,0,0,0,0,0,0,0,0,0,0,0,0,0,0,0,0,0,0,0,0,0,0,0],"id":14,"left_children":[1,3,5,7,9,11,13,15,17,-1,-1,19,-1,21,23,-1,-1,25,27,-1,29,-1,31,33,35,-1,-1,-1,37,39,-1,-1,41,-1,43,45,47,-1,-1,-1,-1,-1,-1,-1,-1,-1,-1,-1,-1],"loss_changes":[2.5006228E6,7.815655E5,3.2441035E6,3.5962734E5,3.532375E3,4.7356902E4,2.370413E6,4.1811375E4,2.015991E5,0E0,0E0,1.3569021E4,0E0,1.5472342E5,1.447258E6,0E0,0E0,2.3966062E4,1.4614497E5,0E0,1.5336293E3,0E0,4.649884E4,1.5313792E3,6.55124E5,0E0,0E0,0E0,1.1138782E5,1.7952026E1,0E0,0E0,5.984383E3,0E0,8.637291E0,6.0076137E0,6.1772E5,0E0,0E0,0E0,0E0,0E0,0E0,0E0,0E0,0E0,0E0,0E0,0E0],"parents":[2147483647,0,0,1,1,2,2,3,3,4,4,5,5,6,6,7,7,8,8,11,11,13,13,14,14,17,17,18,18,20,20,22,22,23,23,24,24,28,28,29,29,32,32,34,34,35,35,36,36],"right_children":[2,4,6,8,10,12,14,16,18,-1,-1,20,-1,22,24,-1,-1,26,28,-1,30,-1,32,34,36,-1,-1,-1,38,40,-1,-1,42,-1,44,46,48,-1,-1,-1,-1,-1,-1,-1,-1,-1,-1,-1,-1],"split_conditions":[1.7805573E-1,2.2485163E0,1.5500154E-1,-1.128449E0,3.6596838E-1,1.5470476E0,1.22065544E-1,-6.468477E-1,-1.128449E0,2.2171235E-1,4.8588338E-1,-1.0838991E0,4.020743E-1,-9.774754E-1,1.22206114E-1,1.0170314E-3,4.827054E-1,-6.6595215E-1,-1.2070379E0,2.3174302E-1,1.654144E0,4.620791E-1,-1.0986875E0,-8.9424014E-1,1.1127431E-1,7.305775E-2,4.7591037E-1,4.5823085E-1,-1.2070379E0,-2.5762935E0,7.944882E-2,4.0025488E-1,-8.6504954E-1,7.96393E-2,1.6394375E-1,1.0398381E0,1.1179526E-1,4.509027E-1,1.2142085E-2,-7.557609E-4,2.5556898E-3,1.5478961E-1,2.1866253E-3,2.5291902E-3,4.5010642E-4,2.0410863E-3,-1.72035E-3,5.189917E-4,4.8461887E-1],"split_indices":[245,8,161,154,708,58,679,148,61,0,0,146,0,518,192,0,0,0,371,0,348,0,258,77,223,0,0,0,247,151,0,0,580,0,129,328,369,0,0,0,0,0,0,0,0,0,0,0,0],"split_type":[0,0,0,0,0,0,0,0,0,0,0,0,0,0,0,0,0,0,0,0,0,0,0,0,0,0,0,0,0,0,0,0,0,0,0,0,0,0,0,0,0,0,0,0,0,0,0,0,0],"sum_hessian":[1.0438E4,6.486E3,3.952E3,6.392E3,9.4E1,1.529E3,2.423E3,5E1,6.342E3,5E0,8.9E1,1.523E3,6E0,5.9E2,1.833E3,5E0,4.5E1,3E1,6.312E3,5E0,1.518E3,1.8E1,5.72E2,2.16E2,1.617E3,5E0,2.5E1,1.7E1,6.295E3,1.513E3,5E0,6E0,5.66E2,5E0,2.11E2,8.1E1,1.536E3,1.3E1,6.282E3,4.1E1,1.472E3,5E0,5.61E2,1.25E2,8.6E1,7E1,1.1E1,6.9E1,1.467E3],"tree_param":{"num_deleted":"0","num_feature":"744","num_nodes":"49","size_leaf_vector":"0"}},{"base_weights":[1.7542696E1,5.5485015E0,3.6989048E1,4.012386E0,4.7597343E-1,1.2056785E0,5.9394016E1,8.696716E1,3.3585215E0,7.502705E-1,4.132407E-1,5.2721357E0,7.743514E1,-0E0,4.8371086E-1,8.820096E1,2.8352633E0,5.552015E-1,1.4389502E-1,2.682026E0,7.986346E1,4.186106E-1,8.724233E1,1.5065175E-1,4.7756562E-1,4.657688E-1,2.522981E0,4.889456E-1,7.896573E-2,6.3049343E1,1.4850298E0,1.5281281E-1,4.63982E-1,4.8347265E-1,9.736834E-3,1.588076E-1,9.174977E1,3.8350666E-1,1.1268211E-2,2.546116E-3,2.7322877E-4,4.0018642E-1,1.5740393E-1,2.4131465E-1,4.7761956E-3,2.8981238E-3,1.579509E-3,1.6040229E-3,-1.7645195E-3,1.538089E-3,-3.848632E-3,2.3547107E-2,4.7906214E-1],"categories":[],"categories_nodes":[],"categories_segments":[],"categories_sizes":[],"default_left":[0,0,0,0,0,0,0,0,0,0,0,0,0,0,0,0,0,0,0,0,0,0,0,0,0,0,0,0,0,0,0,0,0,0,0,0,0,0,0,0,0,0,0,0,0,0,0,0,0,0,0,0,0],"id":15,"left_children":[1,3,5,7,-1,9,11,13,15,17,-1,19,21,-1,-1,23,25,27,-1,29,31,33,35,-1,-1,-1,37,39,-1,41,43,-1,-1,45,47,49,51,-1,-1,-1,-1,-1,-1,-1,-1,-1,-1,-1,-1,-1,-1,-1,-1],"loss_changes":[2.4292622E6,8.8685944E5,3.185536E6,3.4329725E5,0E0,5.669295E4,2.385253E6,4.2094938E4,2.7882588E5,8.305427E3,0E0,1.1799703E5,1.384045E6,0E0,0E0,1.2006031E4,1.7597938E5,1.5152139E3,0E0,4.2732625E4,8.792086E3,5.4237976E0,6.38007E5,0E0,0E0,0E0,1.2424469E5,1.3147766E1,0E0,2.3655195E3,1.438159E4,0E0,0E0,2.4383926E0,3.6039782E0,1.1524042E1,5.45815E5,0E0,0E0,0E0,0E0,0E0,0E0,0E0,0E0,0E0,0E0,0E0,0E0,0E0,0E0,0E0,0E0],"parents":[2147483647,0,0,1,1,2,2,3,3,5,5,6,6,7,7,8,8,9,9,11,11,12,12,15,15,16,16,17,17,19,19,20,20,21,21,22,22,26,26,27,27,29,29,30,30,33,33,34,34,35,35,36,36],"right_children":[2,4,6,8,-1,10,12,14,16,18,-1,20,22,-1,-1,24,26,28,-1,30,32,34,36,-1,-1,-1,38,40,-1,42,44,-1,-1,46,48,50,52,-1,-1,-1,-1,-1,-1,-1,-1,-1,-1,-1,-1,-1,-1,-1,-1],"split_conditions":[1.8847694E-1,2.2360094E0,1.5500154E-1,-1.1314386E0,4.7597343E-1,1.5611209E0,1.6752371E-1,-6.6023654E-1,-1.1296748E0,1.6107789E0,4.132407E-1,1.9305898E0,1.1127431E-1,-0E0,4.8371086E-1,-2.571114E-1,-1.2070379E0,1.5780218E0,1.4389502E-1,-8.9724225E-1,4.7626102E-1,9.5540655E-1,1.1127431E-1,1.5065175E-1,4.7756562E-1,4.657688E-1,-1.1314386E0,1.0553018E0,7.896573E-2,-2.313482E-1,-8.9699274E-1,1.5281281E-1,4.63982E-1,1.4946543E-1,2.2667533E-1,9.120478E-1,1.5320805E-1,3.8350666E-1,1.1268211E-2,2.546116E-3,2.7322877E-4,4.0018642E-1,1.5740393E-1,2.4131465E-1,4.7761956E-3,2.8981238E-3,1.579509E-3,1.6040229E-3,-1.7645195E-3,1.538089E-3,-3.848632E-3,2.3547107E-2,4.7906214E-1],"split_indices":[710,535,533,495,0,461,400,431,185,565,0,686,409,0,0,121,712,691,0,723,123,209,378,0,0,0,371,535,0,11,599,0,0,259,633,401,307,0,0,0,0,0,0,0,0,0,0,0,0,0,0,0,0],"split_type":[0,0,0,0,0,0,0,0,0,0,0,0,0,0,0,0,0,0,0,0,0,0,0,0,0,0,0,0,0,0,0,0,0,0,0,0,0,0,0,0,0,0,0,0,0,0,0,0,0,0,0,0,0],"sum_hessian":[1.0415E4,6.443E3,3.972E3,6.336E3,1.07E2,1.53E3,2.442E3,4.8E1,6.288E3,1.523E3,7E0,6.11E2,1.831E3,5E0,4.3E1,3.7E1,6.251E3,1.514E3,9E0,5.92E2,1.9E1,2.07E2,1.624E3,5E0,3.2E1,2E1,6.231E3,1.509E3,5E0,1E1,5.82E2,5E0,1.4E1,1.78E2,2.9E1,8E1,1.544E3,2.1E1,6.21E3,1.441E3,6.8E1,5E0,5E0,5E0,5.77E2,1.1E2,6.8E1,1.6E1,1.3E1,7E1,1E1,6.9E1,1.475E3],"tree_param":{"num_deleted":"0","num_feature":"744","num_nodes":"53","size_leaf_vector":"0"}},{"base_weights":[1.7079128E1,5.438079E0,3.6267002E1,4.0337625E0,4.7301137E-1,8.469204E-1,5.840671E1,8.5851906E1,3.2953122E0,6.501446E-1,2.2931999E-1,5.5460997E0,7.593896E1,-0E0,4.802704E-1,4.7740665E-1,2.8290138E0,1.5343387E-1,5.182793E-1,4.5852312E-1,3.5483856E0,2.5264146E0,8.67482E1,7.8671776E1,2.4557714E0,4.5215926E-1,7.734356E-2,1.8534449E0,7.0205345E1,3.0669725E-1,8.285053E-1,1.5682195E0,9.114398E1,7.577172E-4,4.702557E-1,4.4322428E-1,1.1476326E-2,2.434938E-3,-9.789943E-4,2.0573318E-3,1.1522959E-1,1.5328093E-1,4.3079597E-1,1.9382341E-3,7.848733E-2,7.9372376E-2,1.3415746E-3,-1.0996638E-4,4.7515842E-1],"categories":[],"categories_nodes":[],"categories_segments":[],"categories_sizes":[],"default_left":[0,0,0,0,0,0,0,0,0,0,0,0,0,0,0,0,0,0,0,0,0,0,0,0,0,0,0,0,0,0,0,0,0,0,0,0,0,0,0,0,0,0,0,0,0,0,0,0,0],"id":16,"left_children":[1,3,5,7,-1,9,11,13,15,17,-1,19,21,-1,-1,-1,23,-1,25,-1,27,29,31,33,35,37,-1,39,41,-1,43,45,47,-1,-1,-1,-1,-1,-1,-1,-1,-1,-1,-1,-1,-1,-1,-1,-1],"loss_changes":[2.3036148E6,8.034743E5,3.053943E6,3.81615E5,0E0,1.3228946E4,2.220344E6,4.949647E4,2.690341E5,5.889301E3,0E0,1.0250673E5,1.427619E6,0E0,0E0,0E0,1.7629172E5,0E0,1.4587302E3,0E0,6.605294E4,2.31286E4,5.87064E5,3.679133E4,8.557811E4,3.3702454E1,0E0,1.7506723E4,5.1636016E3,0E0,1.4789423E3,1.4502289E3,5.28649E5,0E0,0E0,0E0,0E0,0E0,0E0,0E0,0E0,0E0,0E0,0E0,0E0,0E0,0E0,0E0,0E0],"parents":[2147483647,0,0,1,1,2,2,3,3,5,5,6,6,7,7,8,8,9,9,11,11,12,12,16,16,18,18,20,20,21,21,22,22,23,23,24,24,25,25,27,27,28,28,30,30,31,31,32,32],"right_children":[2,4,6,8,-1,10,12,14,16,18,-1,20,22,-1,-1,-1,24,-1,26,-1,28,30,32,34,36,38,-1,40,42,-1,44,46,48,-1,-1,-1,-1,-1,-1,-1,-1,-1,-1,-1,-1,-1,-1,-1,-1],"split_conditions":[1.7805573E-1,2.2360094E0,1.4953563E-1,-1.1296748E0,4.7301137E-1,1.531906E0,1.6744666E-1,-7.3392206E-1,-1.2070379E0,-1.0838991E0,2.2931999E-1,-9.273876E-1,1.4953563E-1,-0E0,4.802704E-1,4.7740665E-1,-1.1314386E0,1.5343387E-1,1.4364269E0,4.5852312E-1,1.9305898E0,-8.354816E-1,1.3313793E-1,-3.768757E-1,-1.2070379E0,1.172309E0,7.734356E-2,1.0225326E0,6.798729E-2,3.0669725E-1,1.3487401E0,-7.7060044E-1,1.6784915E-1,7.577172E-4,4.702557E-1,4.4322428E-1,1.1476326E-2,2.434938E-3,-9.789943E-4,2.0573318E-3,1.1522959E-1,1.5328093E-1,4.3079597E-1,1.9382341E-3,7.848733E-2,7.9372376E-2,1.3415746E-3,-1.0996638E-4,4.7515842E-1],"split_indices":[710,504,595,185,0,492,369,148,588,115,0,723,471,0,0,0,340,0,598,0,686,464,285,28,743,535,0,340,15,0,520,154,524,0,0,0,0,0,0,0,0,0,0,0,0,0,0,0,0],"split_type":[0,0,0,0,0,0,0,0,0,0,0,0,0,0,0,0,0,0,0,0,0,0,0,0,0,0,0,0,0,0,0,0,0,0,0,0,0,0,0,0,0,0,0,0,0,0,0,0,0],"sum_hessian":[1.0313E4,6.42E3,3.893E3,6.322E3,9.8E1,1.498E3,2.395E3,5.5E1,6.267E3,1.493E3,5E0,5.97E2,1.798E3,6E0,4.9E1,3E1,6.237E3,5E0,1.488E3,1.2E1,5.85E2,2.31E2,1.567E3,2.9E1,6.208E3,1.483E3,5E0,5.72E2,1.3E1,5E0,2.26E2,7.7E1,1.49E3,5E0,2.4E1,1E1,6.198E3,1.408E3,7.5E1,5.37E2,3.5E1,5E0,8E0,2.21E2,5E0,5E0,7.2E1,6.1E1,1.429E3],"tree_param":{"num_deleted":"0","num_feature":"744","num_nodes":"49","size_leaf_vector":"0"}},{"base_weights":[1.7063894E1,5.26694E0,3.615431E1,3.8847039E0,9.383725E1,1.1815741E0,5.864684E1,8.93802E1,3.2087243E0,2.1743993E-1,4.7914955E-1,8.025909E-1,3.9532462E-1,5.9152665E0,7.618502E1,1.4941715E-1,4.7526714E-1,7.778204E1,2.7953846E0,6.105798E-1,2.3061392E-1,4.6261147E-1,2.088602E0,2.040726E0,8.655149E1,4.70651E-1,3.7972003E-4,7.0691536E1,2.439085E0,7.947892E-2,5.451911E-1,4.2118093E-1,7.172373E-1,2.668732E-1,2.5559726E-1,-7.216901E-2,9.096747E1,4.682506E-1,1.4984009E-3,4.4343197E-1,1.1391855E-2,7.7308424E-2,2.4060893E-3,1.5362875E-1,1.8533428E-3,1.5193997E-3,-4.808424E-3,5.6271453E-4,-2.600839E-3,8.774309E-4,4.7590625E-1],"categories":[],"categories_nodes":[],"categories_segments":[],"categories_sizes":[],"default_left":[0,0,0,0,0,0,0,0,0,0,0,0,0,0,0,0,0,0,0,0,0,0,0,0,0,0,0,0,0,0,0,0,0,0,0,0,0,0,0,0,0,0,0,0,0,0,0,0,0,0,0],"id":17,"left_children":[1,3,5,7,9,11,13,15,17,-1,-1,19,-1,21,23,-1,-1,25,27,29,-1,-1,31,33,35,-1,-1,37,39,-1,41,-1,43,-1,45,47,49,-1,-1,-1,-1,-1,-1,-1,-1,-1,-1,-1,-1,-1,-1],"loss_changes":[2.3363598E6,7.8472925E5,3.116887E6,3.6465988E5,3.603375E3,4.571317E4,2.2295015E6,1.2422406E4,1.9290948E5,0E0,0E0,1.3406023E4,0E0,1.9970078E5,1.390525E6,0E0,0E0,4.379758E4,1.5059628E5,1.5244097E3,0E0,0E0,6.5175562E4,2.0449824E4,6.0729E5,0E0,0E0,5.246228E4,8.5694016E4,0E0,1.4518657E3,0E0,5.920304E3,0E0,1.3090058E1,6.6652675E0,5.77841E5,0E0,0E0,0E0,0E0,0E0,0E0,0E0,0E0,0E0,0E0,0E0,0E0,0E0,0E0],"parents":[2147483647,0,0,1,1,2,2,3,3,4,4,5,5,6,6,7,7,8,8,11,11,13,13,14,14,17,17,18,18,19,19,22,22,23,23,24,24,27,27,28,28,30,30,32,32,34,34,35,35,36,36],"right_children":[2,4,6,8,10,12,14,16,18,-1,-1,20,-1,22,24,-1,-1,26,28,30,-1,-1,32,34,36,-1,-1,38,40,-1,42,-1,44,-1,46,48,50,-1,-1,-1,-1,-1,-1,-1,-1,-1,-1,-1,-1,-1,-1],"split_conditions":[1.7805573E-1,2.2485163E0,1.6057603E-1,-1.128449E0,6.8422896E-1,1.6049438E0,1.6752371E-1,-9.132034E-1,-1.128449E0,2.1743993E-1,4.7914955E-1,1.4991801E0,3.9532462E-1,-4.805227E-2,1.3860382E-1,1.4941715E-1,4.7526714E-1,-4.9856162E-1,-1.1314386E0,-1.7192473E0,2.3061392E-1,4.6261147E-1,-1.017847E0,-8.4200984E-1,1.1127431E-1,4.70651E-1,3.7972003E-4,-5.1291275E-1,-1.2070379E0,7.947892E-2,-1.0057863E0,4.2118093E-1,-9.354188E-1,2.668732E-1,2.821683E0,6.2297255E-1,1.22065544E-1,4.682506E-1,1.4984009E-3,4.4343197E-1,1.1391855E-2,7.7308424E-2,2.4060893E-3,1.5362875E-1,1.8533428E-3,1.5193997E-3,-4.808424E-3,5.6271453E-4,-2.600839E-3,8.774309E-4,4.7590625E-1],"split_indices":[245,39,130,154,739,244,648,121,30,0,0,133,0,129,409,0,0,15,278,412,0,0,444,320,502,0,0,263,743,0,154,0,425,0,432,532,338,0,0,0,0,0,0,0,0,0,0,0,0,0,0],"split_type":[0,0,0,0,0,0,0,0,0,0,0,0,0,0,0,0,0,0,0,0,0,0,0,0,0,0,0,0,0,0,0,0,0,0,0,0,0,0,0,0,0,0,0,0,0,0,0,0,0,0,0],"sum_hessian":[1.0374E4,6.413E3,3.961E3,6.316E3,9.7E1,1.551E3,2.41E3,4.8E1,6.268E3,5E0,9.2E1,1.545E3,6E0,6.02E2,1.808E3,5E0,4.3E1,3.3E1,6.235E3,1.54E3,5E0,2.4E1,5.78E2,2.22E2,1.586E3,2.7E1,6E0,3.1E1,6.204E3,5E0,1.535E3,8E0,5.7E2,6E0,2.16E2,7.7E1,1.509E3,2.3E1,8E0,1E1,6.194E3,5E0,1.53E3,5E0,5.65E2,2.09E2,7E0,5.5E1,2.2E1,6.7E1,1.442E3],"tree_param":{"num_deleted":"0","num_feature":"744","num_nodes":"51","size_leaf_vector":"0"}},{"base_weights":[1.67626E1,5.0455365E0,3.6150585E1,3.6324275E0,9.336144E1,1.535056E0,5.756974E1,8.044772E1,3.1433465E0,2.1730532E-1,4.7624877E-1,4.3558654E-1,7.5978786E-1,3.2968898E0,7.559342E1,4.7209987E-1,2.9584076E-4,4.5577312E-1,2.8585987E0,4.3168038E-1,3.7845147E-1,4.450842E-1,9.010677E-1,2.2078477E-1,8.492472E1,4.5506805E-1,2.6284108E0,4.66886E-1,-3.286617E-1,2.2604297E-1,4.082157E-1,4.0823105E-1,-2.476701E-1,3.4411386E-1,8.982987E1,4.4887283E-1,1.2208981E-2,2.3705806E-3,-9.031344E-4,-1.05035564E-4,-5.291579E-3,2.1339916E-3,-3.2743316E-3,-0E0,2.3246126E-3,-4.2666397E-3,1.3227301E-4,2.1140473E-3,-2.923398E-3,3.4686743E-4,4.7060013E-1],"categories":[],"categories_nodes":[],"categories_segments":[],"categories_sizes":[],"default_left":[0,0,0,0,0,0,0,0,0,0,0,0,0,0,0,0,0,0,0,0,0,0,0,0,0,0,0,0,0,0,0,0,0,0,0,0,0,0,0,0,0,0,0,0,0,0,0,0,0,0,0],"id":18,"left_children":[1,3,5,7,9,11,13,15,17,-1,-1,-1,19,21,23,-1,-1,-1,25,27,-1,-1,29,31,33,-1,35,37,39,-1,41,43,45,47,49,-1,-1,-1,-1,-1,-1,-1,-1,-1,-1,-1,-1,-1,-1,-1,-1],"loss_changes":[2.3726252E6,8.12232E5,2.917033E6,2.4047694E5,3.4210625E3,9.977185E4,2.3771165E6,4.5462703E4,1.592918E5,0E0,0E0,0E0,3.6653844E4,1.24623836E5,1.283171E6,0E0,0E0,0E0,1.28549E5,4.0102448E1,0E0,0E0,1.2901649E4,1.796532E1,6.73495E5,0E0,1.02734E5,6.85141E0,1.46788025E1,0E0,1.1979599E1,3.3115559E0,9.911744E0,6.9532614E0,5.90886E5,0E0,0E0,0E0,0E0,0E0,0E0,0E0,0E0,0E0,0E0,0E0,0E0,0E0,0E0,0E0,0E0],"parents":[2147483647,0,0,1,1,2,2,3,3,4,4,5,5,6,6,7,7,8,8,12,12,13,13,14,14,18,18,19,19,22,22,23,23,24,24,26,26,27,27,28,28,30,30,31,31,32,32,33,33,34,34],"right_children":[2,4,6,8,10,12,14,16,18,-1,-1,-1,20,22,24,-1,-1,-1,26,28,-1,-1,30,32,34,-1,36,38,40,-1,42,44,46,48,50,-1,-1,-1,-1,-1,-1,-1,-1,-1,-1,-1,-1,-1,-1,-1,-1],"split_conditions":[1.8836331E-1,2.2485163E0,1.5500154E-1,-1.128449E0,8.032005E-1,-8.972433E-1,1.2256866E-1,-5.1291275E-1,-1.2070379E0,2.1730532E-1,4.7624877E-1,4.3558654E-1,1.6351715E-1,-1.1314386E0,1.3425249E-1,4.7209987E-1,2.9584076E-4,4.5577312E-1,-1.2070379E0,1.1173214E0,3.7845147E-1,4.450842E-1,-9.354188E-1,8.5703534E-1,1.1127431E-1,4.5506805E-1,-1.2070379E0,1.3585618E0,2.2915983E0,2.2604297E-1,1.2918848E0,-2.5762935E0,3.6785334E-1,1.0574945E0,1.2087694E-1,4.4887283E-1,1.2208981E-2,2.3705806E-3,-9.031344E-4,-1.05035564E-4,-5.291579E-3,2.1339916E-3,-3.2743316E-3,-0E0,2.3246126E-3,-4.2666397E-3,1.3227301E-4,2.1140473E-3,-2.923398E-3,3.4686743E-4,4.7060013E-1],"split_indices":[59,163,68,30,120,61,462,15,340,0,0,0,67,340,0,0,0,0,588,535,0,0,673,432,223,0,712,690,134,0,400,182,75,352,152,0,0,0,0,0,0,0,0,0,0,0,0,0,0,0,0],"split_type":[0,0,0,0,0,0,0,0,0,0,0,0,0,0,0,0,0,0,0,0,0,0,0,0,0,0,0,0,0,0,0,0,0,0,0,0,0,0,0,0,0,0,0,0,0,0,0,0,0,0,0],"sum_hessian":[1.0444E4,6.511E3,3.933E3,6.41E3,1.01E2,1.504E3,2.429E3,3.9E1,6.371E3,5E0,9.6E1,1.2E1,1.492E3,6.06E2,1.823E3,3.3E1,6E0,1.9E1,6.352E3,1.487E3,5E0,1.5E1,5.91E2,2.01E2,1.622E3,1.5E1,6.337E3,1.422E3,6.5E1,5E0,5.86E2,1.44E2,5.7E1,8.9E1,1.533E3,1.2E1,6.325E3,1.407E3,1.5E1,4.7E1,1.8E1,5.77E2,9E0,1.8E1,1.26E2,1.7E1,4E1,8.3E1,6E0,7E1,1.463E3],"tree_param":{"num_deleted":"0","num_feature":"744","num_nodes":"51","size_leaf_vector":"0"}},{"base_weights":[1.700137E1,5.3775225E0,3.5920464E1,3.9810076E0,4.6818495E-1,9.23703E-1,5.7718494E1,8.4475525E1,3.3099327E0,6.037807E-1,3.7709275E-1,5.196817E0,7.5842964E1,2.4903318E-4,4.7681624E-1,8.693389E1,2.8090057E0,4.1027483E-1,2.2745386E-1,8.587007E1,2.1957579E0,7.2977066E-1,8.597927E1,1.4668691E-1,4.7217348E-1,8.306086E1,2.5193696E0,4.4930542E-1,-2.2353916E-1,2.2780572E-1,4.6735117E-1,4.1911536E-1,1.0345159E0,7.775703E-2,2.703105E-1,2.455939E0,9.037123E1,2.1821621E-1,4.5285377E-1,4.3757153E-1,1.1673873E-2,2.4124733E-3,1.3608781E-3,-7.0499973E-3,-3.0051704E-4,2.3234662E-1,2.678221E-3,1.8659102E-3,-1.4505045E-3,1.5079702E-1,2.5639829E-4,-3.7740258E-4,4.7205317E-1],"categories":[],"categories_nodes":[],"categories_segments":[],"categories_sizes":[],"default_left":[0,0,0,0,0,0,0,0,0,0,0,0,0,0,0,0,0,0,0,0,0,0,0,0,0,0,0,0,0,0,0,0,0,0,0,0,0,0,0,0,0,0,0,0,0,0,0,0,0,0,0,0,0],"id":19,"left_children":[1,3,5,7,-1,9,11,13,15,17,-1,19,21,-1,-1,23,25,27,-1,29,31,33,35,-1,-1,37,39,41,43,-1,-1,-1,45,-1,47,49,51,-1,-1,-1,-1,-1,-1,-1,-1,-1,-1,-1,-1,-1,-1,-1,-1],"loss_changes":[2.291302E6,7.9522156E5,3.0250315E6,3.4298147E5,0E0,3.6225406E4,2.325428E6,4.823203E4,2.637919E5,1.3152355E4,0E0,1.5186269E5,1.382917E6,0E0,0E0,1.20203125E4,1.454194E5,3.7636993E1,0E0,4.7725E2,5.7437312E4,1.4716945E3,5.86763E5,0E0,0E0,7.044531E2,9.772791E4,8.038147E0,1.6739899E1,0E0,0E0,0E0,1.3564276E4,0E0,1.2429716E1,5.4209565E3,5.55545E5,0E0,0E0,0E0,0E0,0E0,0E0,0E0,0E0,0E0,0E0,0E0,0E0,0E0,0E0,0E0,0E0],"parents":[2147483647,0,0,1,1,2,2,3,3,5,5,6,6,7,7,8,8,9,9,11,11,12,12,15,15,16,16,17,17,19,19,20,20,21,21,22,22,25,25,26,26,27,27,28,28,32,32,34,34,35,35,36,36],"right_children":[2,4,6,8,-1,10,12,14,16,18,-1,20,22,-1,-1,24,26,28,-1,30,32,34,36,-1,-1,38,40,42,44,-1,-1,-1,46,-1,48,50,52,-1,-1,-1,-1,-1,-1,-1,-1,-1,-1,-1,-1,-1,-1,-1,-1],"split_conditions":[1.7805573E-1,2.2360094E0,1.5500154E-1,-1.1314386E0,4.6818495E-1,1.6122942E0,1.6698253E-1,-8.815626E-1,-1.128449E0,1.5969784E0,3.7709275E-1,-7.920895E-1,1.3313793E-1,2.4903318E-4,4.7681624E-1,-7.95223E-1,-1.1296748E0,1.0209016E0,2.2745386E-1,-2.1234666E-1,-8.0288213E-1,-1.6153754E0,1.3860382E-1,1.4668691E-1,4.7217348E-1,-3.5239673E-1,-1.2070379E0,2.0672195E-1,-1.6443776E0,2.2780572E-1,4.6735117E-1,4.1911536E-1,-1.2487731E0,7.775703E-2,1.0908244E0,-7.8919864E-1,6.495734E-2,2.1821621E-1,4.5285377E-1,4.3757153E-1,1.1673873E-2,2.4124733E-3,1.3608781E-3,-7.0499973E-3,-3.0051704E-4,2.3234662E-1,2.678221E-3,1.8659102E-3,-1.4505045E-3,1.5079702E-1,2.5639829E-4,-3.7740258E-4,4.7205317E-1],"split_indices":[493,318,347,371,0,381,183,47,123,505,0,692,316,0,0,682,185,535,0,28,630,534,471,0,0,155,495,129,447,0,0,0,348,0,504,611,90,0,0,0,0,0,0,0,0,0,0,0,0,0,0,0,0],"split_type":[0,0,0,0,0,0,0,0,0,0,0,0,0,0,0,0,0,0,0,0,0,0,0,0,0,0,0,0,0,0,0,0,0,0,0,0,0,0,0,0,0,0,0,0,0,0,0,0,0,0,0,0,0],"sum_hessian":[1.0419E4,6.455E3,3.964E3,6.356E3,9.9E1,1.522E3,2.442E3,5.1E1,6.305E3,1.517E3,5E0,6.27E2,1.815E3,6E0,4.5E1,3.6E1,6.269E3,1.512E3,5E0,2.1E1,6.06E2,2.16E2,1.599E3,5E0,3.1E1,2.1E1,6.248E3,1.425E3,8.7E1,5E0,1.6E1,7E0,5.99E2,5E0,2.11E2,8E1,1.519E3,5E0,1.6E1,1.2E1,6.236E3,1.197E3,2.28E2,9E0,7.8E1,5E0,5.94E2,1.79E2,3.2E1,5E0,7.5E1,6.5E1,1.454E3],"tree_param":{"num_deleted":"0","num_feature":"744","num_nodes":"53","size_leaf_vector":"0"}},{"base_weights":[1.6888216E1,4.976943E0,3.637662E1,3.7118273E0,8.9195786E1,1.3583478E0,5.8603992E1,8.893837E1,3.0565188E0,1.8498148E-3,4.7047472E-1,3.7136638E-1,8.546782E-1,4.669716E0,7.5816574E1,1.4380951E-1,4.7429407E-1,8.54485E1,2.6165607E0,5.3698015E-1,3.744735E-1,4.299911E-1,1.7139542E0,2.7638197E-1,8.5139854E1,1.4814414E-1,4.6837497E-1,4.4581825E-1,2.401968E0,4.0859863E-1,1.514759E-1,3.7945682E-1,8.5033154E-1,4.012967E-1,-2.3320161E-1,2.3483722E0,8.947096E1,3.3869392E-1,1.0778169E-2,2.2062943E-3,-9.7369484E-4,2.2609997E-1,1.6471805E-3,2.2081644E-3,-1.943257E-3,-3.1386404E-3,1.1485172E-3,1.5171118E-1,-2.1186011E-4,1.4877309E-2,4.669108E-1],"categories":[],"categories_nodes":[],"categories_segments":[],"categories_sizes":[],"default_left":[0,0,0,0,0,0,0,0,0,0,0,0,0,0,0,0,0,0,0,0,0,0,0,0,0,0,0,0,0,0,0,0,0,0,0,0,0,0,0,0,0,0,0,0,0,0,0,0,0,0,0],"id":20,"left_children":[1,3,5,7,9,11,13,15,17,-1,-1,-1,19,21,23,-1,-1,25,27,29,-1,-1,31,33,35,-1,-1,-1,37,39,-1,-1,41,43,45,47,49,-1,-1,-1,-1,-1,-1,-1,-1,-1,-1,-1,-1,-1,-1],"loss_changes":[2.4142382E6,6.875095E5,3.0709045E6,3.549732E5,4.1487812E4,5.6207594E4,2.240021E6,1.3161969E4,2.286139E5,0E0,0E0,0E0,3.5784445E4,1.4050834E5,1.288432E6,0E0,0E0,1.11953125E4,1.1637864E5,5.7803936E3,0E0,0E0,3.6178574E4,1.3064029E1,5.83612E5,0E0,0E0,0E0,1.00688695E5,3.0021667E1,0E0,0E0,1.2945907E4,5.477743E0,7.692339E0,5.5293975E3,5.23084E5,0E0,0E0,0E0,0E0,0E0,0E0,0E0,0E0,0E0,0E0,0E0,0E0,0E0,0E0],"parents":[2147483647,0,0,1,1,2,2,3,3,4,4,5,5,6,6,7,7,8,8,12,12,13,13,14,14,17,17,18,18,19,19,22,22,23,23,24,24,28,28,29,29,32,32,33,33,34,34,35,35,36,36],"right_children":[2,4,6,8,10,12,14,16,18,-1,-1,-1,20,22,24,-1,-1,26,28,30,-1,-1,32,34,36,-1,-1,-1,38,40,-1,-1,42,44,46,48,50,-1,-1,-1,-1,-1,-1,-1,-1,-1,-1,-1,-1,-1,-1],"split_conditions":[1.7805573E-1,1.9128553E0,1.5500154E-1,-1.128449E0,-2.1377635E-1,-1.0093042E0,1.6752371E-1,-4.074004E-1,-1.1314386E0,1.8498148E-3,4.7047472E-1,3.7136638E-1,1.6445094E0,-1.1314386E0,1.1127431E-1,1.4380951E-1,4.7429407E-1,-6.91815E-1,-1.2039068E0,1.5969784E0,3.744735E-1,4.299911E-1,-9.147884E-1,7.1122164E-1,1.1127431E-1,1.4814414E-1,4.6837497E-1,4.4581825E-1,-1.1314386E0,1.0209016E0,1.514759E-1,3.7945682E-1,-9.553784E-1,1.9992483E0,9.090207E-1,-5.7257646E-1,1.0255747E-1,3.3869392E-1,1.0778169E-2,2.2062943E-3,-9.7369484E-4,2.2609997E-1,1.6471805E-3,2.2081644E-3,-1.943257E-3,-3.1386404E-3,1.1485172E-3,1.5171118E-1,-2.1186011E-4,1.4877309E-2,4.669108E-1],"split_indices":[400,380,347,61,24,340,710,1,278,0,0,0,4,650,409,0,0,73,154,536,0,0,444,333,564,0,0,0,433,535,0,0,735,178,429,475,276,0,0,0,0,0,0,0,0,0,0,0,0,0,0],"split_type":[0,0,0,0,0,0,0,0,0,0,0,0,0,0,0,0,0,0,0,0,0,0,0,0,0,0,0,0,0,0,0,0,0,0,0,0,0,0,0,0,0,0,0,0,0,0,0,0,0,0,0],"sum_hessian":[1.04E4,6.456E3,3.944E3,6.362E3,9.4E1,1.532E3,2.412E3,4.7E1,6.315E3,5E0,8.9E1,9E0,1.523E3,5.84E2,1.828E3,5E0,4.2E1,3.2E1,6.283E3,1.518E3,5E0,1.9E1,5.65E2,2.01E2,1.627E3,5E0,2.7E1,1.4E1,6.269E3,1.513E3,5E0,5E0,5.6E2,1.62E2,3.9E1,8.1E1,1.546E3,2.2E1,6.247E3,1.436E3,7.7E1,5E0,5.55E2,1.55E2,7E0,2.1E1,1.8E1,5E0,7.6E1,6.7E1,1.479E3],"tree_param":{"num_deleted":"0","num_feature":"744","num_nodes":"51","size_leaf_vector":"0"}},{"base_weights":[1.6340733E1,5.021198E0,3.5097675E1,3.7542603E0,4.6486324E-1,1.0780534E0,5.7088245E1,8.733366E1,3.1971545E0,4.0676466E-1,5.808642E-1,4.714234E0,7.449837E1,1.4196432E-1,4.7025687E-1,8.405835E1,2.8722892E0,3.9223498E-1,2.2444503E-1,4.2758214E-1,1.6934224E0,3.2786828E-1,8.428741E1,2.1226837E-1,4.554485E-1,4.5257518E-1,2.6160605E0,-5.482358E-1,4.2267892E-1,3.716748E-1,8.638851E-1,4.3941256E-1,-5.4179084E-2,-1.1671976E-1,8.889713E1,4.524419E-1,1.2001455E-2,-8.665129E-4,-5.656866E-3,2.233171E-3,-0E0,1.20340414E-1,1.7232698E-3,-1.5020512E-4,2.4079585E-3,-1.8157936E-3,7.82554E-4,1.0532024E-4,-6.7985295E-3,-2.4305277E-4,4.652582E-1],"categories":[],"categories_nodes":[],"categories_segments":[],"categories_sizes":[],"default_left":[0,0,0,0,0,0,0,0,0,0,0,0,0,0,0,0,0,0,0,0,0,0,0,0,0,0,0,0,0,0,0,0,0,0,0,0,0,0,0,0,0,0,0,0,0,0,0,0,0,0,0],"id":21,"left_children":[1,3,5,7,-1,9,11,13,15,-1,17,19,21,-1,-1,23,25,27,-1,-1,29,31,33,-1,-1,-1,35,37,39,-1,41,43,45,47,49,-1,-1,-1,-1,-1,-1,-1,-1,-1,-1,-1,-1,-1,-1,-1,-1],"loss_changes":[2.2183638E6,7.2580694E5,2.9418415E6,2.9884394E5,0E0,6.1596426E4,2.177383E6,1.27976875E4,1.6738747E5,0E0,1.2814664E4,1.4560803E5,1.3014E6,0E0,0E0,1.6323438E3,1.4250622E5,4.420047E1,0E0,0E0,3.468813E4,9.0832615E0,6.16142E5,0E0,0E0,0E0,1.1996741E5,1.00488825E1,1.497641E1,0E0,6.880351E3,3.349493E0,3.283883E0,1.461118E1,5.54867E5,0E0,0E0,0E0,0E0,0E0,0E0,0E0,0E0,0E0,0E0,0E0,0E0,0E0,0E0,0E0,0E0],"parents":[2147483647,0,0,1,1,2,2,3,3,5,5,6,6,7,7,8,8,10,10,11,11,12,12,15,15,16,16,17,17,20,20,21,21,22,22,26,26,27,27,28,28,30,30,31,31,32,32,33,33,34,34],"right_children":[2,4,6,8,-1,10,12,14,16,-1,18,20,22,-1,-1,24,26,28,-1,-1,30,32,34,-1,-1,-1,36,38,40,-1,42,44,46,48,50,-1,-1,-1,-1,-1,-1,-1,-1,-1,-1,-1,-1,-1,-1,-1,-1],"split_conditions":[1.8752101E-1,2.2485163E0,1.5500154E-1,-1.128449E0,4.6486324E-1,-1.0835034E0,1.6871917E-1,-6.0878736E-1,-1.1314386E0,4.0676466E-1,1.5342445E0,-1.0284374E0,1.22206114E-1,1.4196432E-1,4.7025687E-1,-8.86505E-1,-1.2070379E0,-2.5762935E0,2.2444503E-1,4.2758214E-1,-1.9951057E0,9.1469854E-1,1.0580841E-1,2.1226837E-1,4.554485E-1,4.5257518E-1,-1.2070379E0,1.3696283E0,8.910999E-1,3.716748E-1,2.2059236E-1,-1.2888494E0,-7.2538686E-1,1.608503E0,1.674268E-1,4.524419E-1,1.2001455E-2,-8.665129E-4,-5.656866E-3,2.233171E-3,-0E0,1.20340414E-1,1.7232698E-3,-1.5020512E-4,2.4079585E-3,-1.8157936E-3,7.82554E-4,1.0532024E-4,-6.7985295E-3,-2.4305277E-4,4.652582E-1],"split_indices":[121,70,99,30,0,92,462,90,340,0,585,340,130,0,0,445,216,151,0,0,166,628,6,0,0,0,433,333,566,0,99,261,665,131,214,0,0,0,0,0,0,0,0,0,0,0,0,0,0,0,0],"split_type":[0,0,0,0,0,0,0,0,0,0,0,0,0,0,0,0,0,0,0,0,0,0,0,0,0,0,0,0,0,0,0,0,0,0,0,0,0,0,0,0,0,0,0,0,0,0,0,0,0,0,0],"sum_hessian":[1.0448E4,6.517E3,3.931E3,6.426E3,9.1E1,1.544E3,2.387E3,4.1E1,6.385E3,8E0,1.536E3,5.96E2,1.791E3,5E0,3.6E1,2.4E1,6.361E3,1.531E3,5E0,2E1,5.76E2,2.09E2,1.582E3,5E0,1.9E1,1.7E1,6.344E3,4.7E1,1.484E3,5E0,5.71E2,1.62E2,4.7E1,8.2E1,1.5E3,1.4E1,6.33E3,3E1,1.7E1,1.404E3,8E1,1.1E1,5.6E2,1.3E1,1.49E2,1.9E1,2.8E1,7.5E1,7E0,6.7E1,1.433E3],"tree_param":{"num_deleted":"0","num_feature":"744","num_nodes":"51","size_leaf_vector":"0"}},{"base_weights":[1.6571241E1,4.7483087E0,3.5654324E1,3.4677422E0,4.6001887E-1,1.0043031E0,5.739258E1,8.344766E1,2.8988318E0,3.854147E-1,6.2865734E-1,5.483781E0,7.469563E1,-0E0,4.7004128E-1,8.193564E1,2.460594E0,3.7319446E-1,3.0066437E-1,6.959466E1,2.10664E0,1.104358E0,8.487663E1,7.239086E-2,4.6313074E-1,6.932846E1,2.1853225E0,4.0994674E-1,-2.2534406E-1,1.9336008E-3,4.7083625E-1,1.2430116E0,3.9093468E-1,1.5215696E-1,2.2343224E-1,1.3807393E0,8.931437E1,1.5006537E-4,4.5319247E-1,4.3763188E-1,9.925142E-3,2.2324342E-3,1.1222684E-3,1.5340915E-3,-2.7683047E-3,2.7018642E-1,2.7267009E-3,1.5649772E-3,-4.103325E-3,8.1835187E-4,7.771272E-2,-2.6146355E-4,4.642571E-1],"categories":[],"categories_nodes":[],"categories_segments":[],"categories_sizes":[],"default_left":[0,0,0,0,0,0,0,0,0,0,0,0,0,0,0,0,0,0,0,0,0,0,0,0,0,0,0,0,0,0,0,0,0,0,0,0,0,0,0,0,0,0,0,0,0,0,0,0,0,0,0,0,0],"id":22,"left_children":[1,3,5,7,-1,9,11,13,15,-1,17,19,21,-1,-1,23,25,27,-1,29,31,33,35,-1,-1,37,39,41,43,-1,-1,45,-1,-1,47,49,51,-1,-1,-1,-1,-1,-1,-1,-1,-1,-1,-1,-1,-1,-1,-1,-1],"loss_changes":[2.3374792E6,7.145596E5,2.9853325E6,2.866655E5,0E0,4.3622758E4,2.1868895E6,3.920697E4,2.166984E5,0E0,2.3113145E4,1.31946E5,1.368315E6,0E0,0E0,2.2846844E4,1.1447883E5,3.357892E1,0E0,5.179533E4,3.8045863E4,5.7577793E3,5.94317E5,0E0,0E0,3.7634953E4,1.0584539E5,9.418091E0,1.5766711E1,0E0,0E0,2.1179137E4,0E0,0E0,2.071629E1,1.4150043E3,4.81595E5,0E0,0E0,0E0,0E0,0E0,0E0,0E0,0E0,0E0,0E0,0E0,0E0,0E0,0E0,0E0,0E0],"parents":[2147483647,0,0,1,1,2,2,3,3,5,5,6,6,7,7,8,8,10,10,11,11,12,12,15,15,16,16,17,17,19,19,20,20,21,21,22,22,25,25,26,26,27,27,28,28,31,31,34,34,35,35,36,36],"right_children":[2,4,6,8,-1,10,12,14,16,-1,18,20,22,-1,-1,24,26,28,-1,30,32,34,36,-1,-1,38,40,42,44,-1,-1,46,-1,-1,48,50,52,-1,-1,-1,-1,-1,-1,-1,-1,-1,-1,-1,-1,-1,-1,-1,-1],"split_conditions":[1.7805573E-1,2.2360094E0,1.4953563E-1,-1.1314386E0,4.6001887E-1,-1.0873777E0,1.5320805E-1,-1.0589685E0,-1.1314386E0,3.854147E-1,1.4877424E0,-4.960983E-1,1.3860382E-1,-0E0,4.7004128E-1,-5.093966E-1,-1.1314386E0,1.1174313E0,3.0066437E-1,-3.2438347E-1,1.9895265E0,-9.899012E-1,1.2767202E-1,7.239086E-2,4.6313074E-1,-1.06295E0,-1.2064549E0,1.7325442E-1,7.747587E-1,1.9336008E-3,4.7083625E-1,-5.089697E-1,3.9093468E-1,1.5215696E-1,1.7276167E0,1.089373E0,1.22065544E-1,1.5006537E-4,4.5319247E-1,4.3763188E-1,9.925142E-3,2.2324342E-3,1.1222684E-3,1.5340915E-3,-2.7683047E-3,2.7018642E-1,2.7267009E-3,1.5649772E-3,-4.103325E-3,8.1835187E-4,7.771272E-2,-2.6146355E-4,4.642571E-1],"split_indices":[648,442,626,526,0,588,307,171,278,0,213,692,502,0,0,214,371,566,0,330,687,382,471,0,0,16,185,129,183,0,0,661,0,0,370,520,400,0,0,0,0,0,0,0,0,0,0,0,0,0,0,0,0],"split_type":[0,0,0,0,0,0,0,0,0,0,0,0,0,0,0,0,0,0,0,0,0,0,0,0,0,0,0,0,0,0,0,0,0,0,0,0,0,0,0,0,0,0,0,0,0,0,0,0,0,0,0,0,0],"sum_hessian":[1.036E4,6.398E3,3.962E3,6.307E3,9.1E1,1.528E3,2.434E3,4.3E1,6.264E3,6E0,1.522E3,6.09E2,1.825E3,5E0,3.8E1,3.3E1,6.231E3,1.517E3,5E0,2.9E1,5.8E2,2.22E2,1.603E3,5E0,2.8E1,2.4E1,6.207E3,1.43E3,8.7E1,8E0,2.1E1,5.75E2,5E0,5E0,2.17E2,8.1E1,1.522E3,6E0,1.8E1,1.3E1,6.194E3,1.192E3,2.38E2,3.3E1,5.4E1,6E0,5.69E2,2.01E2,1.6E1,7.6E1,5E0,5.8E1,1.464E3],"tree_param":{"num_deleted":"0","num_feature":"744","num_nodes":"53","size_leaf_vector":"0"}},{"base_weights":[1.6625452E1,5.314205E0,3.5168667E1,3.9709134E0,4.6408972E-1,1.1004885E0,5.668686E1,4.571735E-1,3.332227E0,6.623357E-1,3.9965346E-1,6.0165343E0,7.38643E1,8.9152626E1,2.8239145E0,2.948127E-1,4.1363117E-1,6.8196556E1,2.2242064E0,2.5369674E-1,8.352004E1,2.1855634E-1,4.706E-1,7.819826E1,2.4350228E0,3.5019016E-1,7.578501E-2,1.9729282E-3,4.7377253E-1,1.2035283E0,3.557712E-1,4.559186E-1,6.1132517E-3,-1.6604449E-1,8.813145E1,1.7969163E-4,4.620018E-1,4.4275698E-1,1.1112098E-2,1.9851231E-3,-2.162153E-3,2.3162992E-1,3.4385913E-3,2.5094154E-3,-3.037687E-4,1.3527875E-3,-1.8557496E-3,8.234211E-4,-5.038687E-3,6.880799E-3,4.5996803E-1],"categories":[],"categories_nodes":[],"categories_segments":[],"categories_sizes":[],"default_left":[0,0,0,0,0,0,0,0,0,0,0,0,0,0,0,0,0,0,0,0,0,0,0,0,0,0,0,0,0,0,0,0,0,0,0,0,0,0,0,0,0,0,0,0,0,0,0,0,0,0,0],"id":23,"left_children":[1,3,5,7,-1,9,11,-1,13,15,-1,17,19,21,23,-1,25,27,29,31,33,-1,-1,35,37,39,-1,-1,-1,41,-1,43,45,47,49,-1,-1,-1,-1,-1,-1,-1,-1,-1,-1,-1,-1,-1,-1,-1,-1],"loss_changes":[2.2006898E6,7.657496E5,2.914277E6,3.5829728E5,0E0,5.3112855E4,2.120014E6,0E0,2.778133E5,2.2186562E4,0E0,1.4560505E5,1.293189E6,2.2659062E3,1.855833E5,0E0,1.4185951E3,6.384908E4,4.097979E4,1.0542606E1,6.20776E5,0E0,0E0,3.6053766E4,1.1522319E5,5.609227E1,0E0,0E0,0E0,1.33839E4,0E0,2.900671E0,9.857602E0,2.4218357E1,5.10595E5,0E0,0E0,0E0,0E0,0E0,0E0,0E0,0E0,0E0,0E0,0E0,0E0,0E0,0E0,0E0,0E0],"parents":[2147483647,0,0,1,1,2,2,3,3,5,5,6,6,8,8,9,9,11,11,12,12,13,13,14,14,16,16,17,17,18,18,19,19,20,20,23,23,24,24,25,25,29,29,31,31,32,32,33,33,34,34],"right_children":[2,4,6,8,-1,10,12,-1,14,16,-1,18,20,22,24,-1,26,28,30,32,34,-1,-1,36,38,40,-1,-1,-1,42,-1,44,46,48,50,-1,-1,-1,-1,-1,-1,-1,-1,-1,-1,-1,-1,-1,-1,-1,-1],"split_conditions":[1.7805573E-1,2.2360094E0,1.4953563E-1,-1.128449E0,4.6408972E-1,1.480111E0,1.5320805E-1,4.571735E-1,-1.1314386E0,-1.0094702E0,3.9965346E-1,-4.9616066E-1,1.1127431E-1,-1.0805837E0,-1.1314386E0,2.948127E-1,1.5779021E0,1.12469114E-1,1.9895265E0,-1.4133318E-2,1.2043643E-1,2.1855634E-1,4.706E-1,-1.06295E0,-1.2070379E0,1.2006389E0,7.578501E-2,1.9729282E-3,4.7377253E-1,-5.5711293E-1,3.557712E-1,1.2898737E0,1.7325442E-1,8.198948E-1,1.6784915E-1,1.7969163E-4,4.620018E-1,4.4275698E-1,1.1112098E-2,1.9851231E-3,-2.162153E-3,2.3162992E-1,3.4385913E-3,2.5094154E-3,-3.037687E-4,1.3527875E-3,-1.8557496E-3,8.234211E-4,-5.038687E-3,6.880799E-3,4.5996803E-1],"split_indices":[648,442,595,154,0,58,245,0,557,588,0,723,471,510,371,0,629,332,687,288,468,0,0,16,681,566,0,0,0,599,0,379,129,463,524,0,0,0,0,0,0,0,0,0,0,0,0,0,0,0,0],"split_type":[0,0,0,0,0,0,0,0,0,0,0,0,0,0,0,0,0,0,0,0,0,0,0,0,0,0,0,0,0,0,0,0,0,0,0,0,0,0,0,0,0,0,0,0,0,0,0,0,0,0,0],"sum_hessian":[1.0492E4,6.518E3,3.974E3,6.421E3,9.7E1,1.539E3,2.435E3,4.5E1,6.376E3,1.532E3,7E0,6.17E2,1.818E3,3.6E1,6.34E3,5E0,1.527E3,3.4E1,5.83E2,2.11E2,1.607E3,5E0,3.1E1,3.1E1,6.309E3,1.522E3,5E0,1E1,2.4E1,5.76E2,7E0,1.15E2,9.6E1,8.4E1,1.523E3,5E0,2.6E1,1.4E1,6.295E3,1.437E3,8.5E1,5E0,5.71E2,1.06E2,9E0,5.7E1,3.9E1,6.1E1,2.3E1,6.5E1,1.458E3],"tree_param":{"num_deleted":"0","num_feature":"744","num_nodes":"51","size_leaf_vector":"0"}},{"base_weights":[1.6396677E1,5.099683E0,3.4642933E1,3.767159E0,4.5823446E-1,1.2517936E0,5.6578667E1,8.64953E1,3.0754566E0,3.5386306E-1,8.304738E-1,8.250137E1,2.2789108E1,6.9609165E-2,4.6845382E-1,8.501011E1,2.4775805E0,4.6804383E-1,3.8168624E-1,1.4920267E0,9.239567E1,6.321945E-1,4.3488632E1,7.6212496E-2,4.6526957E-1,4.5468786E-1,2.1570878E0,3.4538162E-1,1.489825E-1,2.1677808E-1,1.473335E-1,6.2541637E0,9.457482E1,1.5169519E-1,2.4487092E-1,2.2346996E-2,5.9274036E1,4.2902103E-1,1.0008475E-2,1.9265669E-3,-2.5224697E-3,1.9017024E-3,-1.7914168E-3,5.3804164E-4,1.491958E-1,9.3807105E-4,4.785312E-1,1.3768197E-3,-1.0550339E-2,1.3771614E-3,-3.3110736E-3,4.175279E-1,1.5375373E-1],"categories":[],"categories_nodes":[],"categories_segments":[],"categories_sizes":[],"default_left":[0,0,0,0,0,0,0,0,0,0,0,0,0,0,0,0,0,0,0,0,0,0,0,0,0,0,0,0,0,0,0,0,0,0,0,0,0,0,0,0,0,0,0,0,0,0,0,0,0,0,0,0,0],"id":24,"left_children":[1,3,5,7,-1,9,11,13,15,-1,17,19,21,-1,-1,23,25,27,-1,29,31,33,35,-1,-1,-1,37,39,-1,41,-1,43,45,-1,47,49,51,-1,-1,-1,-1,-1,-1,-1,-1,-1,-1,-1,-1,-1,-1,-1,-1],"loss_changes":[2.146652E6,7.415296E5,2.916901E6,3.6229262E5,0E0,4.6191152E4,2.102425E6,2.5437438E4,3.0767088E5,0E0,4.2963953E4,1.089455E6,4.794555E5,0E0,0E0,2.338525E4,1.7669528E5,5.614008E3,0E0,5.317844E3,2.2651E5,5.8106104E3,3.7084106E5,0E0,0E0,0E0,8.0605836E4,5.326042E1,0E0,1.3800257E1,0E0,4.555638E3,1.26128E5,0E0,3.6516953E1,2.5404476E1,2.7017162E5,0E0,0E0,0E0,0E0,0E0,0E0,0E0,0E0,0E0,0E0,0E0,0E0,0E0,0E0,0E0,0E0],"parents":[2147483647,0,0,1,1,2,2,3,3,5,5,6,6,7,7,8,8,10,10,11,11,12,12,15,15,16,16,17,17,19,19,20,20,21,21,22,22,26,26,27,27,29,29,31,31,32,32,34,34,35,35,36,36],"right_children":[2,4,6,8,-1,10,12,14,16,-1,18,20,22,-1,-1,24,26,28,-1,30,32,34,36,-1,-1,-1,38,40,-1,42,-1,44,46,-1,48,50,52,-1,-1,-1,-1,-1,-1,-1,-1,-1,-1,-1,-1,-1,-1,-1,-1],"split_conditions":[1.7805573E-1,2.2485163E0,1.5500154E-1,-1.128449E0,4.5823446E-1,-9.722611E-1,5.720621E-1,-7.5198174E-1,-1.1314386E0,3.5386306E-1,1.6659302E0,1.3313793E-1,2.0789438E-1,6.9609165E-2,4.6845382E-1,-6.2310016E-1,-1.2070379E0,1.4524673E0,3.8168624E-1,1.5986687E0,-1.4919782E-1,-9.7987545E-1,1.6593334E-1,7.6212496E-2,4.6526957E-1,4.5468786E-1,-1.2070379E0,1.0241382E0,1.489825E-1,7.3464113E-1,1.473335E-1,1.0011559E0,-1.4015724E-1,1.5169519E-1,2.486476E0,8.465267E-1,5.672036E-1,4.2902103E-1,1.0008475E-2,1.9265669E-3,-2.5224697E-3,1.9017024E-3,-1.7914168E-3,5.3804164E-4,1.491958E-1,9.3807105E-4,4.785312E-1,1.3768197E-3,-1.0550339E-2,1.3771614E-3,-3.3110736E-3,4.175279E-1,1.5375373E-1],"split_indices":[369,163,316,30,0,340,317,0,216,0,4,285,710,0,0,241,402,317,0,689,28,661,440,0,0,0,526,504,0,628,0,204,254,0,108,628,505,0,0,0,0,0,0,0,0,0,0,0,0,0,0,0,0],"split_type":[0,0,0,0,0,0,0,0,0,0,0,0,0,0,0,0,0,0,0,0,0,0,0,0,0,0,0,0,0,0,0,0,0,0,0,0,0,0,0,0,0,0,0,0,0,0,0,0,0,0,0,0,0],"sum_hessian":[1.0414E4,6.433E3,3.981E3,6.337E3,9.6E1,1.579E3,2.402E3,5.1E1,6.286E3,8E0,1.571E3,1.358E3,1.044E3,5E0,4.6E1,4.4E1,6.242E3,1.565E3,6E0,1.48E2,1.21E3,5.05E2,5.39E2,5E0,3.9E1,2.1E1,6.221E3,1.56E3,5E0,1.43E2,5E0,3E1,1.18E3,5E0,5E2,1.44E2,3.95E2,1E1,6.211E3,1.491E3,6.9E1,1.12E2,3.1E1,2.5E1,5E0,1.4E1,1.166E3,4.95E2,5E0,1.06E2,3.8E1,2.12E2,1.83E2],"tree_param":{"num_deleted":"0","num_feature":"744","num_nodes":"53","size_leaf_vector":"0"}},{"base_weights":[1.6355814E1,5.043472E0,3.4405098E1,3.7450202E0,4.5807016E-1,9.995355E-1,5.5835934E1,8.378814E1,3.123899E0,5.11319E-1,4.0508324E-1,7.6523857E0,7.290142E1,1.177932E-3,4.668958E-1,8.120789E1,2.5894523E0,2.2154358E-1,3.2768026E-1,1.879518E0,5.7435947E1,6.1452615E-1,8.289177E1,4.600697E-1,4.7140842E-4,4.5964092E-1,2.2355046E0,3.7391168E-1,-3.9907047E-1,5.6993755E1,6.5374786E-1,4.2514567E0,8.731479E1,7.615169E-2,1.6847248E-1,2.2766306E-1,8.763556E1,4.4772777E-1,1.0080007E-2,2.0698206E-3,9.50467E-4,-3.857113E-4,-7.004505E-3,7.578567E-2,4.091337E-1,1.5710166E-1,1.4710323E-3,2.2862796E-3,7.602954E-2,4.8215285E-1,7.271691E-2,1.91377E-3,-2.0650157E-3,1.6273758E-3,-1.9113334E-3,-1.6551057E-3,4.587662E-1],"categories":[],"categories_nodes":[],"categories_segments":[],"categories_sizes":[],"default_left":[0,0,0,0,0,0,0,0,0,0,0,0,0,0,0,0,0,0,0,0,0,0,0,0,0,0,0,0,0,0,0,0,0,0,0,0,0,0,0,0,0,0,0,0,0,0,0,0,0,0,0,0,0,0,0,0,0],"id":25,"left_children":[1,3,5,7,-1,9,11,13,15,17,-1,19,21,-1,-1,23,25,-1,27,29,31,33,35,-1,-1,-1,37,39,41,43,45,47,49,-1,51,53,55,-1,-1,-1,-1,-1,-1,-1,-1,-1,-1,-1,-1,-1,-1,-1,-1,-1,-1,-1,-1],"loss_changes":[2.1247315E6,7.188192E5,2.870343E6,3.1312697E5,0E0,6.119607E4,2.007556E6,3.8814E4,2.6088752E5,1.2520236E4,0E0,1.8390202E5,1.302342E6,0E0,0E0,3.7220562E4,1.963096E5,0E0,5.2481583E1,3.8811855E4,1.05099375E5,1.4306073E3,6.213E5,0E0,0E0,0E0,1.1844664E5,1.053598E1,2.9697678E1,1.110682E4,6.224211E3,1.0463044E3,2.6067344E4,0E0,2.7082256E1,5.3953896E0,5.42849E5,0E0,0E0,0E0,0E0,0E0,0E0,0E0,0E0,0E0,0E0,0E0,0E0,0E0,0E0,0E0,0E0,0E0,0E0,0E0,0E0],"parents":[2147483647,0,0,1,1,2,2,3,3,5,5,6,6,7,7,8,8,9,9,11,11,12,12,15,15,16,16,18,18,19,19,20,20,21,21,22,22,26,26,27,27,28,28,29,29,30,30,31,31,32,32,34,34,35,35,36,36],"right_children":[2,4,6,8,-1,10,12,14,16,18,-1,20,22,-1,-1,24,26,-1,28,30,32,34,36,-1,-1,-1,38,40,42,44,46,48,50,-1,52,54,56,-1,-1,-1,-1,-1,-1,-1,-1,-1,-1,-1,-1,-1,-1,-1,-1,-1,-1,-1,-1],"split_conditions":[1.6752371E-1,2.2360094E0,1.3860382E-1,-1.1314386E0,4.5807016E-1,1.4808654E0,1.674268E-1,-2.571114E-1,-1.1314386E0,-1.0094702E0,4.0508324E-1,5.917225E-1,1.3313793E-1,1.177932E-3,4.668958E-1,-4.8421046E-1,-1.2070379E0,2.2154358E-1,1.0776078E0,-8.164827E-1,3.370704E-1,-1.638432E0,6.754708E-2,4.600697E-1,4.7140842E-4,4.5964092E-1,-1.2070379E0,1.7325442E-1,1.8837423E0,-4.768207E-1,-8.8649064E-1,9.75711E-2,5.2176046E-1,7.615169E-2,4.7625676E-1,1.2501203E0,1.4492549E-1,4.4772777E-1,1.0080007E-2,2.0698206E-3,9.50467E-4,-3.857113E-4,-7.004505E-3,7.578567E-2,4.091337E-1,1.5710166E-1,1.4710323E-3,2.2862796E-3,7.602954E-2,4.8215285E-1,7.271691E-2,1.91377E-3,-2.0650157E-3,1.6273758E-3,-1.9113334E-3,-1.6551057E-3,4.587662E-1],"split_indices":[741,566,719,464,0,120,307,121,216,681,0,309,347,0,0,201,681,0,659,41,531,567,471,0,0,0,557,129,20,22,134,620,559,0,240,618,586,0,0,0,0,0,0,0,0,0,0,0,0,0,0,0,0,0,0,0,0],"split_type":[0,0,0,0,0,0,0,0,0,0,0,0,0,0,0,0,0,0,0,0,0,0,0,0,0,0,0,0,0,0,0,0,0,0,0,0,0,0,0,0,0,0,0,0,0,0,0,0,0,0,0,0,0,0,0,0,0],"sum_hessian":[1.0406E4,6.398E3,4.008E3,6.305E3,9.3E1,1.567E3,2.441E3,4.7E1,6.258E3,1.559E3,8E0,6.39E2,1.802E3,5E0,4.2E1,4.1E1,6.217E3,5E0,1.554E3,5.74E2,6.5E1,2.19E2,1.583E3,3.6E1,5E0,2.3E1,6.194E3,1.462E3,9.2E1,1.1E1,5.63E2,2.4E1,4.1E1,5E0,2.14E2,8.6E1,1.497E3,1.4E1,6.18E3,1.198E3,2.64E2,7.1E1,2.1E1,5E0,6E0,5E0,5.58E2,1.9E1,5E0,3.6E1,5E0,1.57E2,5.7E1,7.5E1,1.1E1,6.7E1,1.43E3],"tree_param":{"num_deleted":"0","num_feature":"744","num_nodes":"57","size_leaf_vector":"0"}},{"base_weights":[1.6216307E1,4.7113004E0,3.4878563E1,3.544219E0,8.788759E1,1.1223799E0,5.6751953E1,4.5818183E-1,3.0594335E0,1.4035748E-1,4.5481357E-1,6.990918E-1,3.8932258E-1,4.946363E0,7.3391884E1,8.5874504E1,2.6279943E0,3.665595E-1,3.9189807E-1,4.2020464E-1,1.9150357E0,5.4288056E-2,8.3008255E1,2.1324179E-1,4.5700127E-1,4.4148064E-1,2.42815E0,3.3202937E-1,7.2067596E-2,3.422785E-1,8.9317006E-1,1.7397946E-1,-9.5382947E-1,-2.2697458E-1,8.7212685E1,1.1161466E-2,4.3113074E-1,1.8256276E-3,-4.339052E-3,2.9145914E-1,1.0693767E-3,2.2204274E-3,-1.9451791E-4,-2.3101972E-4,-8.291927E-3,8.198499E-5,-5.4406617E-3,1.2137479E-2,4.5706403E-1],"categories":[],"categories_nodes":[],"categories_segments":[],"categories_sizes":[],"default_left":[0,0,0,0,0,0,0,0,0,0,0,0,0,0,0,0,0,0,0,0,0,0,0,0,0,0,0,0,0,0,0,0,0,0,0,0,0,0,0,0,0,0,0,0,0,0,0,0,0],"id":26,"left_children":[1,3,5,7,9,11,13,-1,15,-1,-1,17,-1,19,21,23,25,-1,27,-1,29,31,33,-1,-1,-1,35,37,-1,-1,39,41,43,45,47,-1,-1,-1,-1,-1,-1,-1,-1,-1,-1,-1,-1,-1,-1],"loss_changes":[2.2205922E6,6.208334E5,2.912362E6,2.6918353E5,1.2424875E4,5.033409E4,2.0627365E6,0E0,2.2404394E5,0E0,0E0,3.44164E4,0E0,1.3964225E5,1.277521E6,1.8889219E3,1.0665358E5,0E0,1.2830544E3,0E0,3.820995E4,2.5613174E1,5.60502E5,0E0,0E0,0E0,1.0204944E5,6.1349594E1,0E0,0E0,2.1667871E4,1.106089E1,1.3932291E1,1.6693243E1,5.42537E5,0E0,0E0,0E0,0E0,0E0,0E0,0E0,0E0,0E0,0E0,0E0,0E0,0E0,0E0],"parents":[2147483647,0,0,1,1,2,2,3,3,4,4,5,5,6,6,8,8,11,11,13,13,14,14,15,15,16,16,18,18,20,20,21,21,22,22,26,26,27,27,30,30,31,31,32,32,33,33,34,34],"right_children":[2,4,6,8,10,12,14,-1,16,-1,-1,18,-1,20,22,24,26,-1,28,-1,30,32,34,-1,-1,-1,36,38,-1,-1,40,42,44,46,48,-1,-1,-1,-1,-1,-1,-1,-1,-1,-1,-1,-1,-1,-1],"split_conditions":[1.7805573E-1,2.2360094E0,1.5500154E-1,-1.2070379E0,3.480744E-1,1.6090329E0,1.6752371E-1,4.5818183E-1,-1.128449E0,1.4035748E-1,4.5481357E-1,-1.0873777E0,3.8932258E-1,-1.0873777E0,1.3313793E-1,-7.7222395E-1,-1.2070379E0,3.665595E-1,1.6571727E0,4.2020464E-1,-9.9705523E-1,1.3550235E0,1.1741925E-1,2.1324179E-1,4.5700127E-1,4.4148064E-1,2.030163E0,1.3550235E0,7.2067596E-2,3.422785E-1,-9.533333E-1,-5.1529044E-1,-7.5710326E-1,1.4987411E0,1.01014696E-1,1.1161466E-2,4.3113074E-1,1.8256276E-3,-4.339052E-3,2.9145914E-1,1.0693767E-3,2.2204274E-3,-1.9451791E-4,-2.3101972E-4,-8.291927E-3,8.198499E-5,-5.4406617E-3,1.2137479E-2,4.5706403E-1],"split_indices":[369,659,316,247,243,399,679,0,61,0,0,309,0,557,192,653,371,0,534,0,642,628,155,0,0,0,120,628,0,0,433,474,191,587,245,0,0,0,0,0,0,0,0,0,0,0,0,0,0],"split_type":[0,0,0,0,0,0,0,0,0,0,0,0,0,0,0,0,0,0,0,0,0,0,0,0,0,0,0,0,0,0,0,0,0,0,0,0,0,0,0,0,0,0,0,0,0,0,0,0,0],"sum_hessian":[1.0342E4,6.399E3,3.943E3,6.312E3,8.7E1,1.551E3,2.392E3,3.3E1,6.279E3,5E0,8.2E1,1.544E3,7E0,5.82E2,1.81E3,3.1E1,6.248E3,5E0,1.539E3,2E1,5.62E2,2.1E2,1.6E3,5E0,2.6E1,1.3E1,6.235E3,1.534E3,5E0,7E0,5.55E2,1.89E2,2.1E1,7.7E1,1.523E3,6.222E3,1.3E1,1.494E3,4E1,5E0,5.5E2,8.3E1,1.06E2,1E1,1.1E1,6.1E1,1.6E1,7.2E1,1.451E3],"tree_param":{"num_deleted":"0","num_feature":"744","num_nodes":"49","size_leaf_vector":"0"}},{"base_weights":[1.6162237E1,4.6260147E0,3.44127E1,3.3413918E0,4.553639E-1,1.1244302E0,5.5747272E1,8.411922E1,2.7528248E0,8.1991357E-1,3.7275305E-1,5.572191E0,7.2900925E1,7.057732E-2,4.611696E-1,7.7270615E1,2.290625E0,5.804204E-1,2.534167E-1,7.842909E1,2.7351007E0,9.673325E-1,8.195511E1,8.288978E-4,4.5745775E-1,7.267557E1,1.9887861E0,2.1948144E-1,3.9954114E-1,1.4504094E-1,4.4711632E-1,1.0024674E0,6.868882E1,1.4780936E-1,3.673441E-2,2.0511298E0,8.646265E1,4.4809356E-1,-5.381918E-4,4.1308224E-1,9.321996E-3,1.6790844E-3,7.77294E-2,3.0025092E-1,1.731368E-3,4.1677698E-1,1.4557302E-1,1.5240465E-3,-1.7259119E-3,1.4761335E-1,-6.091232E-4,-9.3766046E-4,4.516944E-1],"categories":[],"categories_nodes":[],"categories_segments":[],"categories_sizes":[],"default_left":[0,0,0,0,0,0,0,0,0,0,0,0,0,0,0,0,0,0,0,0,0,0,0,0,0,0,0,0,0,0,0,0,0,0,0,0,0,0,0,0,0,0,0,0,0,0,0,0,0,0,0,0,0],"id":27,"left_children":[1,3,5,7,-1,9,11,13,15,17,-1,19,21,-1,-1,23,25,27,-1,29,31,33,35,-1,-1,37,39,-1,41,-1,-1,43,45,-1,47,49,51,-1,-1,-1,-1,-1,-1,-1,-1,-1,-1,-1,-1,-1,-1,-1,-1],"loss_changes":[2.194753E6,7.090881E5,2.867291E6,2.990383E5,0E0,3.5187695E4,2.1170925E6,2.3872562E4,2.1510227E5,1.873628E4,0E0,1.2957398E5,1.194022E6,0E0,0E0,4.217428E4,1.3183738E5,1.22461045E4,0E0,8.853844E3,6.918972E4,5.4874214E3,5.86253E5,0E0,0E0,3.2711531E4,6.1846734E4,0E0,1.4971007E3,0E0,0E0,2.2914178E4,5.333703E3,0E0,2.0779783E1,5.2942305E3,5.17798E5,0E0,0E0,0E0,0E0,0E0,0E0,0E0,0E0,0E0,0E0,0E0,0E0,0E0,0E0,0E0,0E0],"parents":[2147483647,0,0,1,1,2,2,3,3,5,5,6,6,7,7,8,8,9,9,11,11,12,12,15,15,16,16,17,17,19,19,20,20,21,21,22,22,25,25,26,26,28,28,31,31,32,32,34,34,35,35,36,36],"right_children":[2,4,6,8,-1,10,12,14,16,18,-1,20,22,-1,-1,24,26,28,-1,30,32,34,36,-1,-1,38,40,-1,42,-1,-1,44,46,-1,48,50,52,-1,-1,-1,-1,-1,-1,-1,-1,-1,-1,-1,-1,-1,-1,-1,-1],"split_conditions":[1.6752371E-1,2.2485163E0,1.5500154E-1,-1.128449E0,4.553639E-1,1.525925E0,1.6698253E-1,-4.6798384E-1,-1.1314386E0,1.6536443E0,3.7275305E-1,-8.038289E-1,1.3313793E-1,7.057732E-2,4.611696E-1,-4.3788284E-1,-1.128449E0,-1.0523115E0,2.534167E-1,-1.4083776E-1,1.9139364E0,-9.546813E-1,1.4406973E-1,8.288978E-4,4.5745775E-1,-5.272639E-1,-1.2937393E0,2.1948144E-1,1.6523509E0,1.4504094E-1,4.4711632E-1,-8.0288213E-1,1.7773603E0,1.4780936E-1,1.8289985E-1,-7.4804145E-1,1.6793567E-1,4.4809356E-1,-5.381918E-4,4.1308224E-1,9.321996E-3,1.6790844E-3,7.77294E-2,3.0025092E-1,1.731368E-3,4.1677698E-1,1.4557302E-1,1.5240465E-3,-1.7259119E-3,1.4761335E-1,-6.091232E-4,-9.3766046E-4,4.516944E-1],"split_indices":[400,287,223,123,0,224,59,28,309,255,0,444,192,0,0,90,30,247,0,28,407,177,68,0,0,15,371,0,69,0,0,413,381,0,535,10,152,0,0,0,0,0,0,0,0,0,0,0,0,0,0,0,0],"split_type":[0,0,0,0,0,0,0,0,0,0,0,0,0,0,0,0,0,0,0,0,0,0,0,0,0,0,0,0,0,0,0,0,0,0,0,0,0,0,0,0,0,0,0,0,0,0,0,0,0,0,0,0,0],"sum_hessian":[1.0424E4,6.388E3,4.036E3,6.296E3,9.2E1,1.577E3,2.459E3,4.4E1,6.252E3,1.572E3,5E0,6.27E2,1.832E3,5E0,3.9E1,3.7E1,6.215E3,1.566E3,6E0,2.2E1,6.05E2,2.05E2,1.627E3,6E0,3.1E1,2.5E1,6.19E3,5E0,1.561E3,5E0,1.7E1,5.91E2,1.4E1,5E0,2E2,8.7E1,1.54E3,2E1,5E0,8E0,6.182E3,1.556E3,5E0,5E0,5.86E2,9E0,5E0,1.18E2,8.2E1,5E0,8.2E1,6.6E1,1.474E3],"tree_param":{"num_deleted":"0","num_feature":"744","num_nodes":"53","size_leaf_vector":"0"}},{"base_weights":[1.6202713E1,4.6671553E0,3.462382E1,3.3848271E0,4.5077065E-1,1.2584532E0,5.57732E1,8.262716E1,2.8336465E0,7.7273047E-1,4.0080193E-1,6.177005E0,7.358793E1,6.719621E-2,4.55419E-1,4.4366294E-1,2.523326E0,5.889184E-1,2.2091827E-1,4.4278872E-1,2.5283506E0,1.7305187E0,8.2903114E1,4.3634066E-1,2.3117936E0,1.4903231E-1,4.6469244E-1,4.2431483E-1,8.415337E-1,2.9338354E-1,-1.0017416E-1,1.0329789E0,8.70507E1,4.3724158E-1,1.0631588E-2,1.7111399E-3,1.2676163E-1,2.9161182E-1,1.1205268E-3,2.2801035E-4,-6.42396E-3,7.489533E-2,-1.0935431E-3,-2.7293747E-3,4.5326245E-1],"categories":[],"categories_nodes":[],"categories_segments":[],"categories_sizes":[],"default_left":[0,0,0,0,0,0,0,0,0,0,0,0,0,0,0,0,0,0,0,0,0,0,0,0,0,0,0,0,0,0,0,0,0,0,0,0,0,0,0,0,0,0,0,0,0],"id":28,"left_children":[1,3,5,7,-1,9,11,13,15,17,-1,19,21,-1,-1,-1,23,25,-1,-1,27,29,31,-1,33,-1,35,-1,37,-1,39,41,43,-1,-1,-1,-1,-1,-1,-1,-1,-1,-1,-1,-1],"loss_changes":[2.2102575E6,7.009421E5,2.826392E6,2.7503594E5,0E0,5.9504605E4,2.165307E6,2.3594719E4,1.6660711E5,1.2300217E4,0E0,1.9487188E5,1.206968E6,0E0,0E0,0E0,1.11584234E5,5.5717925E3,0E0,0E0,8.646955E4,2.1756863E4,5.4196E5,0E0,9.8055984E4,0E0,4.667916E3,0E0,2.170649E4,0E0,3.547796E1,1.3781733E3,4.79501E5,0E0,0E0,0E0,0E0,0E0,0E0,0E0,0E0,0E0,0E0,0E0,0E0],"parents":[2147483647,0,0,1,1,2,2,3,3,5,5,6,6,7,7,8,8,9,9,11,11,12,12,16,16,17,17,20,20,21,21,22,22,24,24,26,26,28,28,30,30,31,31,32,32],"right_children":[2,4,6,8,-1,10,12,14,16,18,-1,20,22,-1,-1,-1,24,26,-1,-1,28,30,32,-1,34,-1,36,-1,38,-1,40,42,44,-1,-1,-1,-1,-1,-1,-1,-1,-1,-1,-1,-1],"split_conditions":[1.6809721E-1,2.2485163E0,1.6057603E-1,-1.128449E0,4.5077065E-1,1.5242943E0,1.6752371E-1,-6.0878736E-1,-1.2070379E0,1.5920885E0,4.0080193E-1,1.0612906E-1,1.4406973E-1,6.719621E-2,4.55419E-1,4.4366294E-1,-1.2064549E0,-1.0523115E0,2.2091827E-1,4.4278872E-1,-1.0180504E0,-1.0985514E0,8.941069E-2,4.3634066E-1,-1.2070379E0,1.4903231E-1,1.5999442E0,4.2431483E-1,-9.9705523E-1,2.9338354E-1,1.2031039E0,2.2775108E-1,1.5320805E-1,4.3724158E-1,1.0631588E-2,1.7111399E-3,1.2676163E-1,2.9161182E-1,1.1205268E-3,2.2801035E-4,-6.42396E-3,7.489533E-2,-1.0935431E-3,-2.7293747E-3,4.5326245E-1],"split_indices":[276,70,130,61,0,131,710,90,309,195,0,129,254,0,0,0,185,743,0,0,413,134,502,0,402,0,660,0,518,0,690,679,586,0,0,0,0,0,0,0,0,0,0,0,0],"split_type":[0,0,0,0,0,0,0,0,0,0,0,0,0,0,0,0,0,0,0,0,0,0,0,0,0,0,0,0,0,0,0,0,0,0,0,0,0,0,0,0,0,0,0,0,0],"sum_hessian":[1.0401E4,6.397E3,4.004E3,6.304E3,9.3E1,1.554E3,2.45E3,4.2E1,6.262E3,1.546E3,8E0,6.48E2,1.802E3,5E0,3.7E1,2.1E1,6.241E3,1.541E3,5E0,2.6E1,6.22E2,2.07E2,1.595E3,1.4E1,6.227E3,5E0,1.536E3,1.1E1,6.11E2,5E0,2.02E2,7.7E1,1.518E3,1.2E1,6.215E3,1.53E3,6E0,5E0,6.06E2,1.81E2,2.1E1,5E0,7.2E1,6E1,1.458E3],"tree_param":{"num_deleted":"0","num_feature":"744","num_nodes":"45","size_leaf_vector":"0"}},{"base_weights":[1.6203127E1,4.9957013E0,3.439903E1,3.6979768E0,8.80836E1,7.852546E-1,5.5534973E1,8.063968E1,3.1075006E0,2.0737784E-1,4.4944587E-1,2.8631964E-1,5.452746E-1,8.137811E1,2.337047E1,-9.5216156E-4,4.6031207E-1,4.4742924E-1,2.7298903E0,3.615317E-1,2.1826528E-1,6.914249E-1,9.095967E1,4.6394816E-1,1.5456483E1,7.423663E1,2.3472433E0,7.261629E-2,3.0070344E-1,7.463861E-2,2.4000926E-2,8.563349E0,9.318215E1,4.4461777E1,5.518908E0,4.5239815E-1,-7.084452E-4,4.341886E-1,1.0754485E-2,1.8431057E-3,-1.7541746E-3,1.7656835E-3,-2.9386883E-3,2.172842E-1,7.3731644E-4,6.570531E-4,4.70687E-1,3.0982163E-4,4.6179777E-1,1.55367125E-2,3.7554127E-1],"categories":[],"categories_nodes":[],"categories_segments":[],"categories_sizes":[],"default_left":[0,0,0,0,0,0,0,0,0,0,0,0,0,0,0,0,0,0,0,0,0,0,0,0,0,0,0,0,0,0,0,0,0,0,0,0,0,0,0,0,0,0,0,0,0,0,0,0,0,0,0],"id":29,"left_children":[1,3,5,7,9,11,13,15,17,-1,-1,-1,19,21,23,-1,-1,-1,25,27,-1,29,31,-1,33,35,37,-1,39,-1,41,43,45,47,49,-1,-1,-1,-1,-1,-1,-1,-1,-1,-1,-1,-1,-1,-1,-1,-1],"loss_changes":[2.1327318E6,6.9760725E5,2.832168E6,2.8930606E5,2.7548125E3,2.0821158E4,2.031565E6,4.4824812E4,2.0606662E5,0E0,0E0,0E0,1.2129834E4,1.048605E6,5.980273E5,0E0,0E0,0E0,1.7219867E5,1.308908E3,0E0,1.3789619E3,2.20821E5,0E0,2.8282E5,4.050953E4,1.0374237E5,0E0,6.770242E1,0E0,2.8553392E1,9.819265E3,1.04894E5,5.326994E5,1.22729695E5,0E0,0E0,0E0,0E0,0E0,0E0,0E0,0E0,0E0,0E0,0E0,0E0,0E0,0E0,0E0,0E0],"parents":[2147483647,0,0,1,1,2,2,3,3,4,4,5,5,6,6,7,7,8,8,12,12,13,13,14,14,18,18,19,19,21,21,22,22,24,24,25,25,26,26,28,28,30,30,31,31,32,32,33,33,34,34],"right_children":[2,4,6,8,10,12,14,16,18,-1,-1,-1,20,22,24,-1,-1,-1,26,28,-1,30,32,-1,34,36,38,-1,40,-1,42,44,46,48,50,-1,-1,-1,-1,-1,-1,-1,-1,-1,-1,-1,-1,-1,-1,-1,-1],"split_conditions":[1.7805573E-1,2.2360094E0,1.4953563E-1,-1.1314386E0,3.6596838E-1,-1.0094702E0,5.766222E-1,-2.955193E-1,-1.2070379E0,2.0737784E-1,4.4944587E-1,2.8631964E-1,1.6118532E0,1.3860382E-1,1.2834333E-1,-9.5216156E-4,4.6031207E-1,4.4742924E-1,-1.128449E0,-9.9138236E-1,2.1826528E-1,-1.5554818E0,-1.9120012E-1,4.6394816E-1,5.7663715E-1,-4.9856162E-1,-1.2070379E0,7.261629E-2,8.810753E-1,7.463861E-2,-1.19577914E-1,-8.975561E-3,-1.801442E-1,2.4792188E-1,1.9708455E0,4.5239815E-1,-7.084452E-4,4.341886E-1,1.0754485E-2,1.8431057E-3,-1.7541746E-3,1.7656835E-3,-2.9386883E-3,2.172842E-1,7.3731644E-4,